档次感	-0.0103842	-0.0526748	-0.0648202	0.0187303	0.0753963	-0.0345431	0.0694498	-0.0476457	-0.126251	0.0877961	0.125783	-0.074979	0.0579816	-0.0553907	0.141083	0.0535299	-0.0680296	-0.314017	0.0568865	-0.0529514	0.107894	0.0176316	-0.0668922	0.0655162	-0.0602783	0.0896724	0.0679267	0.069649	-0.0585232	-0.0733652	0.108206	0.0610765	0.0588567	-0.0489229	0.062225	0.0662341	0.222367	0.0857593	0.0664858	0.0695155	-0.0210532	-0.0446846	-0.0489363	0.0887524	0.0635614	-0.121557	-0.104799	0.0861287	-0.0281138	0.0568954
平庸	0.167792	0.0349213	0.113848	-0.137539	-0.124331	-0.16573	-0.0928375	0.116971	-0.0441307	-0.017797	0.0181847	0.109914	-0.104584	0.0507554	-0.0329425	-0.128469	-0.00393774	0.120412	-0.0472389	0.159002	-0.0134646	-0.175655	0.108251	-0.118707	0.115234	-0.0839114	-0.0318786	-0.0498859	0.109113	0.0975578	-0.10317	-0.00795656	-0.0388038	0.0526034	-0.043136	-0.0955819	-0.420268	-0.0176325	-0.0474756	-0.108613	-0.233625	0.1252	0.13141	-0.0997272	-0.0505037	0.561605	-0.00300345	-0.0889462	0.0380245	-0.133907
塑料感	-0.0171309	-0.0572548	-0.071418	0.0158158	0.0795607	-0.0148169	0.0692061	-0.0509815	-0.138006	0.0694628	0.146558	-0.0807895	0.0492226	-0.051649	0.202873	0.057833	-0.400725	-0.31877	0.0501228	-0.0475223	0.0971873	0.0298495	-0.0712363	0.0731433	-0.0622214	0.0892725	0.0578025	0.0665655	-0.0575442	-0.0953675	0.0836385	0.0846127	0.0513818	-0.0489118	0.0535411	0.0586985	0.212181	0.0793096	0.0556465	0.0714842	-0.0157054	-0.0493179	-0.0760436	0.102716	0.0619192	-0.117031	-0.11193	0.102277	-0.0258615	-0.00778614
重	0.506072	0.0861786	0.0630319	0.161119	-0.0566229	0.155739	-0.0698126	0.0999508	-0.00501239	-0.0779108	0.0182306	0.0514987	-0.0794438	0.106504	0.00671494	-0.0744396	-0.351088	0.106325	-0.0915424	0.161848	-0.0354143	-0.162682	0.103167	-0.119438	0.0733461	-0.0318247	-0.0982422	-0.0841849	0.108086	0.051357	-0.0628107	-0.0590521	-0.093085	0.121182	-0.0984374	-0.0781899	-0.245341	-0.0834783	-0.0630936	-0.0892425	0.159281	0.113797	0.0972269	-0.074899	-0.0752919	0.036598	0.0653111	-0.0718362	0.141378	-0.0959347
行程	-0.0118423	-0.0673205	-0.0662225	0.0271116	0.059881	-0.0310209	0.0672913	-0.0397914	-0.15081	0.0928446	0.44245	-0.0774981	0.0520977	-0.0513181	0.158396	0.0564087	-0.0716456	0.0525867	0.0647582	-0.0598586	0.119563	0.043105	-0.0696233	0.0630454	-0.0536928	0.0807613	0.0665183	0.075595	-0.0603262	-0.0719505	0.0864806	0.0926808	0.0611743	-0.0448986	0.0592148	0.0696708	0.0654093	0.091119	0.0794655	0.0633502	-0.0621649	-0.0459995	-0.0603231	0.0931135	0.0802068	-0.120723	-0.116176	0.0945002	-0.0484922	0.0575823
勉强	0.151335	0.0194413	0.112731	-0.163383	-0.133952	-0.209667	-0.0885712	0.111098	0.211212	-0.0012165	0.0362323	0.112297	-0.0861596	0.0605885	-0.00894178	-0.123371	-0.0136495	-0.220434	-0.0375074	0.162201	0.0353194	-0.229538	0.102925	-0.112688	0.466733	-0.0694406	-0.0250876	-0.0362008	0.109609	0.0996807	-0.0714178	-0.00505084	-0.0168781	0.0547534	-0.0284296	-0.435435	-0.0918934	-0.00953059	-0.0415878	-0.11659	0.199145	0.120195	0.125701	-0.100185	-0.05209	0.0634075	-0.0276533	-0.0775903	0.0325219	-0.0366341
线性	-0.00699378	-0.0643177	-0.0809296	0.0450398	0.0825193	-0.000217176	0.0734697	-0.0468778	-0.140089	0.0889381	0.117482	-0.0798621	0.0650489	-0.0423799	0.164873	0.052194	-0.0731979	-0.306656	0.0534161	-0.0461198	0.114953	0.0466806	-0.0655753	0.0675543	-0.0620832	0.0810102	0.0590593	0.075305	-0.0671266	-0.0883319	0.45316	0.0958459	0.061378	-0.0493512	0.0640759	0.0666518	0.186778	0.0878843	0.0724607	0.069855	-0.0050725	-0.042827	-0.0650846	0.0945736	0.0679667	-0.138182	-0.0959243	0.0991892	-0.0455124	0.0678579
有力	0.115536	0.107117	0.0591252	0.181374	-0.0474859	0.160766	-0.067516	0.0962279	0.0188443	-0.0812096	-0.0531736	0.0442827	-0.0728332	0.114406	-0.135118	-0.0664145	0.0944122	-0.163812	-0.0984785	0.0701924	-0.0540575	0.246767	0.475473	-0.0561982	0.0731086	-0.0375765	-0.106328	-0.0863805	0.0653732	0.0358742	-0.449364	-0.0759181	-0.101697	0.121705	-0.108312	-0.0891937	0.133625	-0.0770851	-0.0928417	-0.0542077	0.123456	0.0891681	0.0584262	-0.032282	-0.0981901	-0.000835779	0.069132	-0.0290179	0.133389	-0.10261
节奏	-0.00314767	-0.0573762	-0.0611991	0.0185222	0.0779591	-0.0312562	0.0751144	-0.0474394	-0.13613	0.0917275	0.121	-0.0867876	0.0537583	-0.0484068	0.146402	0.052606	-0.0735394	-0.3365	0.0629387	-0.0579049	0.113016	0.029283	-0.0685339	0.0700927	-0.0649249	0.0983193	0.0764714	0.0655795	-0.0571049	-0.0856004	0.10257	0.092564	0.0443713	-0.0497762	0.0602854	0.0614233	0.235671	0.0847994	0.0651758	0.0731458	-0.0190205	-0.0547153	-0.0820005	0.10535	0.0791374	-0.121746	0.510765	0.111403	-0.0421618	0.0726839
细致	0.0740333	0.111014	0.0744735	0.170968	-0.0601903	0.166832	-0.070696	0.0911952	-0.0252145	-0.0789309	-0.0230061	0.0475413	-0.0813576	0.114358	0.0273542	-0.0658766	0.0955168	-0.202106	-0.102747	0.0647762	-0.0574554	0.501823	0.0516708	-0.0463642	0.0592327	-0.0301711	-0.100473	-0.0810335	0.0724774	0.0376678	-0.00102417	-0.0764081	-0.0974107	0.132689	-0.107359	-0.48176	0.135327	-0.0779583	-0.0959478	-0.0660125	0.120279	0.0737433	0.0554232	-0.0154816	-0.093631	0.344005	0.0596273	-0.0422043	0.127888	-0.110676
亮度	-0.0157011	-0.0717891	-0.0624982	0.0202104	0.0757422	-0.0214933	0.0684852	-0.0513909	-0.437687	0.0903078	0.126105	-0.0815832	0.0677994	-0.0592709	0.14047	0.057145	-0.0740757	-0.0388543	0.0642236	-0.0525436	0.119425	0.0284267	-0.0654542	0.0638313	-0.0606994	0.082326	0.0712797	0.0785872	-0.0642828	-0.0826392	0.0941786	0.0883435	0.0696976	-0.0548556	0.0661629	0.0636704	0.211015	0.0928862	0.0665109	0.0709598	-0.0714722	-0.0439938	-0.0647364	0.0897564	0.067759	-0.106467	-0.114534	0.0901069	-0.0546822	0.067624
适中	0.108923	0.113964	0.0692891	0.161249	-0.047329	0.131317	-0.0645926	0.0968103	0.472181	-0.0919783	-0.0341255	0.0545945	-0.0792455	0.146078	0.0362325	-0.0645303	0.0957842	0.0220437	-0.100927	0.0658304	-0.0613545	0.231823	0.0564581	-0.0543777	0.0699255	-0.045751	-0.110828	-0.089759	0.0656662	0.0338999	-0.0302961	-0.0897463	-0.103141	0.127753	-0.1059	-0.0940566	-0.565767	-0.108364	-0.099881	-0.0603458	0.119896	0.0992483	0.0533609	-0.0320772	-0.104492	0.0105295	0.070652	-0.0288411	0.147871	-0.106414
价格	-0.00258815	-0.0545878	-0.0618259	0.0217164	0.0695316	0.00294856	0.0751026	-0.0475137	-0.114206	0.0847806	0.115212	-0.0746092	0.0632024	-0.0497732	0.466251	0.0596442	0.264654	0.0343404	0.0558642	-0.0480168	0.104193	-0.372591	-0.0526208	0.0646825	-0.0593	0.0872605	0.0615056	0.0701037	-0.0589906	-0.0845064	0.0933131	0.0898469	0.06706	-0.0473455	0.0591692	0.0608542	-0.0911083	0.0891017	0.070283	0.0738363	0.0624526	-0.0491434	-0.0584459	0.08035	0.067534	-0.112113	-0.0972929	0.093599	-0.0469255	0.0509767
优美	0.0878396	0.0983763	0.0570345	0.461736	-0.0428502	0.149668	-0.338958	0.0867662	-0.0271427	-0.0823917	-0.0413716	0.0479145	-0.0782167	0.119255	-0.326616	-0.0766428	0.0937765	0.0207706	-0.096757	0.0632868	-0.0518314	0.18859	0.054865	-0.0468431	0.0639057	-0.0400187	-0.102282	-0.088813	0.0700344	0.0309638	-0.000791276	-0.0899138	-0.101459	0.127493	-0.121266	-0.0967665	-0.0216085	-0.0808065	-0.105138	-0.058338	0.498162	0.085021	0.0605827	-0.0286221	-0.0867151	-0.0198433	0.062354	-0.0313941	0.130602	-0.0961238
样式	-0.0376114	-0.0509567	-0.0626024	0.0618475	0.0662708	0.0112525	0.0721125	-0.0536945	-0.151495	0.0812469	0.099773	-0.0819416	0.0562244	-0.0582443	-0.209636	0.049709	-0.0598133	-0.0860983	0.0533271	-0.0538395	0.097632	-0.00938032	-0.0611794	0.344412	-0.0601342	0.0807591	0.0588861	0.0734755	-0.0676348	-0.0815806	0.0754506	0.0799587	0.0620665	-0.0421018	0.0591183	0.0643772	-0.229136	0.0889544	0.0730129	0.0747254	-0.0389874	-0.0475392	-0.048394	0.0903164	0.0641757	-0.102426	-0.0923464	0.0901379	-0.0400108	0.0548656
古老	-0.230289	0.120008	0.118965	-0.0932468	-0.14149	-0.148911	-0.0951071	0.119642	-0.0442271	-0.0984233	-0.0366717	-0.258315	-0.104003	0.120785	-0.383133	0.250754	0.111689	-0.0658556	-0.0650351	0.163813	-0.0285717	0.172333	0.113626	-0.0132447	0.126204	-0.0899539	-0.0985531	-0.0420562	0.111936	0.1076	-0.106867	-0.0771323	-0.132218	0.0909927	-0.115177	-0.0521542	-0.331417	-0.0386503	-0.0433706	-0.113915	0.115107	0.130337	0.134443	-0.111936	-0.0801056	0.140019	0.0678719	-0.0813438	0.287543	-0.0651659
尾部	-0.449394	-0.0540257	-0.0570279	0.0539672	0.0571696	-0.0379948	0.0689156	-0.0403903	-0.146035	0.0840068	0.104554	-0.0755469	0.0506186	-0.0589897	0.139645	0.0574926	-0.078178	0.0544555	0.0525485	-0.0543535	0.0993378	0.000143203	-0.235983	0.0702721	-0.0490422	0.0789893	0.0539075	0.0671037	-0.0605553	-0.0804926	0.089094	0.0808562	0.0586168	-0.0407166	0.0529538	0.0670189	-0.224912	0.0862275	0.0647792	0.065971	-0.0635399	-0.0466004	-0.0625165	0.0907294	0.0692353	-0.117897	-0.088854	0.0831311	-0.0391261	0.0656279
中肯	0.0824888	0.106439	0.136835	0.169597	-0.041883	0.20473	-0.0677005	0.109518	-0.00552258	-0.0749215	-0.0168988	0.0512885	-0.0813341	0.117172	0.071243	-0.0646421	0.0795276	-0.380279	-0.106355	0.0686682	-0.48029	0.162348	0.0301618	-0.0498986	0.0698819	-0.0262234	-0.0973743	-0.295413	0.0651213	0.0323195	0.00560714	-0.066995	-0.102662	0.130193	-0.114253	-0.0856682	-0.1211	-0.0907892	-0.090179	-0.0636439	0.116287	0.085856	0.0443523	-0.0214207	-0.0818484	-0.0102557	0.0625254	-0.343094	0.12475	-0.0999184
轴承	-0.00562713	-0.0516722	-0.0611837	0.00506135	0.0645875	-0.0253682	0.0760411	-0.0526665	-0.160318	0.0909115	0.101712	-0.0748614	0.0638334	-0.0486302	0.150164	0.065554	-0.104471	-0.196338	0.0622133	-0.0487453	0.105962	0.0231508	-0.0669562	0.0649183	-0.0590652	0.0934604	0.0627234	0.0740209	-0.0612415	-0.0842334	0.0902945	0.0952172	0.06775	-0.0489043	0.365763	0.0674044	0.233268	0.0844363	0.0671285	0.0704124	-0.0636936	-0.0458806	-0.0607149	0.0978697	0.0674467	-0.124586	-0.110598	0.0950384	-0.0422791	0.0638747
拥挤	0.21143	0.0186868	0.115624	-0.176016	-0.124991	0.205738	-0.0900431	0.110883	-0.0619653	-0.002931	-0.000408663	0.111102	-0.0952096	0.0517439	-0.0207949	-0.12876	-0.00425405	0.327548	-0.0401954	0.155685	0.0303944	-0.154838	0.119226	-0.124883	0.121767	-0.0751488	-0.0316553	-0.0417946	0.108015	0.103899	-0.406629	-0.0154023	-0.334673	0.046107	-0.0387938	-0.0450676	0.0962808	-0.010085	-0.0342851	-0.114377	-0.427319	0.125373	0.121939	-0.0968835	-0.03229	0.0570423	-0.0267835	-0.0823463	0.0364669	-0.0519805
怠速	-0.00273286	-0.056493	-0.0633467	0.0280278	0.0627875	-0.0164726	0.0708072	-0.0459549	-0.142333	0.0794184	0.106968	-0.0766991	0.0572283	-0.0474528	0.143306	0.0580904	-0.0560797	-0.0392747	0.43375	-0.0428814	0.111051	0.0328566	-0.0520463	0.0711263	-0.048909	0.0950618	0.0510695	0.074908	-0.0570333	-0.0811207	0.0823213	0.0749327	0.0631564	-0.0334905	0.0632585	0.0714383	0.429606	0.0760623	0.0642668	0.0740868	-0.0176241	-0.0446747	-0.06132	0.0947151	0.0668645	-0.100127	-0.0976436	0.0945739	-0.0421086	0.0687934
可爱	0.0559003	0.099179	0.0475336	0.251801	-0.0495077	-0.606129	-0.0708084	0.112424	-0.012819	-0.0931079	-0.0536892	0.0428429	-0.0738096	0.110107	0.065793	-0.0773585	0.0976638	-0.16455	-0.121524	0.0615633	-0.39535	0.186818	0.0588968	-0.0880018	0.0710601	-0.0561919	-0.0931313	-0.0977371	0.0783971	0.0417377	-0.0152729	-0.0922883	-0.10535	0.126962	-0.107932	-0.116074	0.167702	-0.0910663	-0.0919776	-0.0913446	0.137548	0.0831679	0.060475	-0.0366016	-0.0932948	-0.000737542	0.0671002	-0.0411757	0.143128	-0.0976449
封闭性	-0.00418609	-0.0423288	-0.0543082	0.028938	0.0738449	6.18814e-005	0.0678084	-0.0465531	-0.166279	0.0862565	0.123643	-0.0696689	0.0615981	-0.0616489	0.156528	0.0579998	-0.0710685	-0.250125	0.0594525	-0.0478489	0.10698	0.0291816	-0.0688327	0.0639184	-0.0593712	0.0870007	0.0695912	0.398453	-0.049303	-0.082363	0.0894264	0.0872933	0.0594038	-0.0471794	0.0486567	0.0612204	0.205362	0.0817269	0.0736668	0.0708095	-0.0493065	-0.0422876	-0.0602324	0.0980626	0.0771483	-0.118414	-0.111389	0.087601	-0.034513	0.0574817
准确	0.089524	0.104995	0.0670075	0.16767	-0.0408252	0.139895	-0.068665	0.0960105	-0.0465843	-0.0821197	-0.024132	0.0542085	-0.0761383	0.109906	-0.363991	-0.0666016	0.0886908	0.464546	-0.0994883	0.0732191	-0.0504431	0.215303	0.0613058	-0.0451238	0.0710669	-0.0418014	-0.0978893	-0.0851174	0.0707153	0.0334126	-0.0241991	-0.37652	-0.104423	0.124591	-0.106431	-0.0884533	0.135684	-0.0671881	-0.0899536	-0.0545395	0.148543	0.0802876	0.0542936	-0.0311751	-0.0947923	0.0180804	0.0557555	-0.0316045	0.12962	-0.10403
织物	-0.0319799	-0.0478134	-0.0726674	0.0359346	0.0751871	-0.00430686	0.0749129	-0.0593946	-0.180164	0.0997891	0.120568	-0.0737754	0.0728039	-0.0615243	0.140479	0.074629	-0.0921858	-0.190327	0.0718154	-0.0424264	0.104122	0.0333822	-0.0964271	0.0751087	-0.0732304	0.10038	0.0603146	0.0758064	-0.0719708	-0.094457	0.101772	0.0814435	0.0674857	-0.056369	0.0621106	0.0763331	0.53852	0.0855241	0.0812071	0.0770163	-0.0548423	-0.0649277	-0.0678218	0.101629	0.0906215	-0.118642	-0.0974499	0.109141	-0.0511315	0.0668173
过瘾	0.0910378	0.110242	0.0586779	0.184714	-0.0442671	0.135841	-0.064085	0.0884535	-0.0152867	-0.0859159	-0.044061	0.0496982	-0.0705607	0.125828	0.0622123	-0.0654997	0.0995965	-0.300647	-0.104492	0.0725572	-0.0645924	0.177285	0.349597	-0.0548824	0.0709915	-0.0306083	-0.103134	-0.0826516	0.065309	0.0303316	-0.30428	-0.0895599	-0.0970363	0.125417	-0.100105	-0.0879558	0.163213	-0.0829725	-0.0923281	-0.278668	0.192137	0.0881699	0.0586507	-0.444534	-0.0874567	0.00566345	0.0594128	-0.0254974	0.14702	-0.0982008
迷人	0.0842862	0.0859816	0.0452265	0.169228	-0.0452304	0.0886492	-0.0566577	-0.141968	-0.158663	-0.0897372	-0.0344568	-0.0846829	0.0262379	-0.185463	0.0757907	0.247643	0.0876752	-0.183145	-0.106197	0.0201328	0.133713	0.234237	-0.315356	0.0114983	0.0692656	-0.0343008	-0.116917	-0.101335	0.0674247	0.0377443	0.274293	-0.441277	-0.0818305	0.175968	-0.110785	0.17939	-0.0479767	-0.0850584	-0.0912221	-0.0633161	0.182047	0.0739368	0.0593647	-0.030367	0.204743	-0.0257422	0.096398	-0.00207273	0.141054	-0.151931
视线	-0.0147819	-0.0640653	-0.0663899	-0.0237849	0.0733758	-0.0096778	0.0716842	-0.0418268	-0.139065	0.0823441	0.122068	-0.073843	0.0490978	-0.0519486	0.149952	0.0557849	-0.0693519	0.0167212	0.0580024	-0.0372206	0.11732	0.0873591	-0.377674	0.0603633	-0.0550975	0.0762425	0.0730433	0.0640949	-0.0595406	-0.0800171	0.0809476	0.0901771	0.0604262	-0.0465684	0.0564549	0.068015	0.19734	0.0885133	0.0671161	0.0656555	-0.0504682	-0.0452687	-0.0603825	0.0910691	0.0703603	-0.0988308	-0.119196	0.0858183	-0.0493119	0.0642103
宽敞	0.0868556	0.112588	0.0597746	0.084897	-0.221099	0.151097	-0.066294	0.0937665	0.410954	-0.0830952	-0.0236502	0.05087	-0.0750094	0.123852	0.285484	-0.0605036	0.109777	0.0727848	-0.0960126	0.079545	-0.421256	0.207414	0.0615801	-0.0588332	0.074181	-0.0428867	-0.109179	-0.0861856	0.0759257	0.0325975	-0.0163116	-0.0795128	-0.0985242	0.127117	-0.353662	-0.0935467	-0.138111	-0.0837693	-0.0906763	-0.0507231	0.132704	0.0939035	0.0583365	-0.0365725	-0.101465	0.0108793	0.0645433	-0.0274965	0.133983	-0.0989017
比例	-0.00933212	-0.0626953	-0.0681498	0.0229617	0.0701903	-0.0150653	0.0717843	-0.050147	-0.157487	0.102643	0.123334	-0.0720909	0.0620488	-0.056673	0.13795	0.0652044	-0.0699379	-0.303825	0.063347	-0.0565676	0.119878	0.0480668	-0.0682893	0.07759	-0.0601596	0.0873247	0.0621016	0.0805573	-0.0639912	-0.0900655	0.110129	0.0878144	0.066101	-0.0493633	0.0587942	0.0753829	0.186648	0.084959	0.0780477	0.0700009	-0.0625573	-0.0527225	-0.0667929	0.0906737	0.0770819	-0.120175	-0.110288	0.379625	-0.0423182	0.0604231
协调	0.0838208	0.107796	0.0695156	0.19465	-0.0488389	0.146715	-0.0600855	0.663033	-0.0255479	-0.0824654	-0.0343721	0.0541172	-0.0704557	0.108618	-0.221193	-0.0582407	0.105755	-0.28493	-0.100208	0.0667454	-0.0530373	0.181733	0.038906	-0.0426935	0.0750179	-0.0394361	-0.108653	-0.075848	0.0340051	0.0322096	-0.00915864	-0.0767793	-0.0937683	0.119348	-0.0976695	-0.083694	-0.188579	-0.0769973	-0.0948564	-0.0478561	0.134444	0.0855052	0.0712995	-0.0290243	-0.0671522	0.00213505	0.0649379	-0.026168	0.122564	-0.0902225
声浪	-0.0116308	-0.0583984	-0.0673941	0.0309202	0.0670456	-0.0436366	0.0675309	-0.0469079	0.148656	0.0912891	0.117272	-0.0835963	0.444526	-0.032397	0.423996	0.0583998	-0.0346294	-0.205082	0.0695874	-0.0498422	0.113024	0.0948043	-0.0616334	0.0654632	-0.0542103	0.0835385	0.0642377	0.0758862	-0.0563796	-0.0792057	0.0878299	0.0819959	0.06356	-0.0360688	0.0586798	0.0671935	0.219515	0.0875721	0.0752836	0.0697484	0.00759426	-0.0452139	-0.0631351	0.0860881	0.0736696	-0.101595	-0.072298	0.0900186	-0.0341578	0.0664643
突然	0.167282	0.0341672	0.113366	-0.153117	-0.118808	-0.301054	-0.092716	0.125589	-0.0640953	0.00170386	0.0463897	0.116121	-0.10365	0.0641811	-0.00137945	-0.121544	-0.0344245	0.301487	-0.0316149	0.152482	0.0392777	0.167389	0.0977773	-0.112262	0.406184	-0.0746543	-0.368047	-0.0446043	0.112843	0.103742	-0.0540778	-0.00157832	-0.0269839	0.0825971	-0.0262657	-0.039368	0.069344	-0.00715027	-0.0306758	-0.111628	-0.278052	0.133197	0.121041	-0.0932613	-0.0267922	0.0562938	0.25594	-0.0767699	0.0387207	-0.0346496
动力	0.0275011	-0.0614785	-0.0663156	0.000336545	0.0682871	0.202567	0.0731509	-0.0570166	0.26679	0.088196	0.101943	-0.0771626	0.0581706	-0.0515289	0.144445	0.0540389	-0.0584897	0.303405	0.0643928	-0.0389479	0.112804	0.0305517	-0.0524083	0.0676471	-0.0612166	0.0882222	0.0607581	0.0744048	-0.064438	-0.0892575	0.0800002	0.0947699	0.0624471	-0.0463031	0.0686872	0.0604977	-0.0134333	0.0829448	0.0670948	0.071316	-0.0389606	-0.0523313	-0.0604529	0.082544	0.0519645	0.195615	-0.0520738	0.0999865	-0.0494209	0.061586
真	0.111496	0.105799	0.0626547	0.190958	-0.0686187	0.125913	-0.0730955	0.0946685	-0.0227941	-0.0783381	-0.0436889	0.0459808	-0.0866993	0.125217	0.0591859	-0.0634778	0.0753177	0.207347	-0.0978463	0.0748082	-0.052778	0.189845	0.0492523	-0.0471137	0.0924091	-0.0382615	-0.102062	-0.0880544	0.0772756	0.0475818	-0.0169495	-0.0778317	-0.103472	0.180663	-0.0992428	-0.0995321	-0.303169	-0.0817979	-0.0983612	-0.0607504	0.121975	0.0908736	0.0538283	-0.0237834	-0.0929504	0.0047156	0.113537	-0.0390017	0.133585	-0.0965292
出众	0.099684	0.444691	0.0675039	0.156455	-0.0492234	0.152816	-0.0590036	-0.222815	-0.0569682	-0.0749375	-0.0224638	0.058327	-0.0593533	0.111637	0.310248	0.296377	0.165799	-0.0817378	-0.0910755	0.0571984	-0.058495	0.120226	-0.295931	0.299842	0.0619403	0.0920189	-0.0909784	0.0915013	0.0689363	-0.11025	0.0941916	-0.0694677	-0.0989118	0.132216	-0.103183	-0.144409	0.0301604	-0.079968	-0.0945592	-0.0515465	0.0954883	0.0706672	0.0423667	-0.029397	0.168295	0.011243	0.097853	-0.011267	0.116704	-0.100582
故障	-0.00778828	-0.0688813	-0.0710005	-0.0263899	0.377875	-0.051672	0.0730873	-0.0472979	-0.140291	0.0952572	0.152017	-0.0720407	0.0575522	-0.0657498	0.148279	0.0581033	-0.080138	0.0954355	0.063932	-0.0548813	0.137095	-0.0180839	-0.0698421	0.0705943	-0.0614596	0.0828198	0.0761483	0.075245	-0.0639519	-0.0841025	0.0853751	0.0902824	0.0671395	-0.0587343	0.0623212	0.0691395	0.436866	0.0962103	0.0726181	0.071278	-0.0268689	-0.0478614	-0.0615976	0.0953656	0.0792881	-0.0897408	-0.114036	0.0973453	-0.0466617	0.0683609
多	0.157745	0.0391877	0.0572467	0.177281	-0.0581036	-0.475452	-0.089086	0.0958661	0.00727537	-0.0558322	-0.0313585	0.0636839	-0.0998929	0.0683012	0.0375902	-0.0803645	0.0497569	0.196732	-0.102114	0.0922985	-0.0365613	-0.166638	0.0558773	-0.0686428	0.0753883	-0.0876757	-0.0562447	-0.0790261	0.088575	0.075839	-0.0885119	-0.00924218	-0.110039	0.0906396	-0.105616	-0.0960447	0.145276	-0.0258584	-0.0696159	-0.0668965	0.124229	0.092065	0.0606947	-0.0416647	-0.0976152	0.0100179	0.0520772	-0.0610388	0.0869563	-0.11392
厚度	-0.0117711	-0.0696945	-0.0692186	0.0123249	0.0736033	-0.0592245	0.0695982	-0.0466798	-0.238706	0.0902957	0.116536	-0.075659	0.0596598	-0.0601971	0.150152	0.0567334	-0.0645889	-0.232713	0.0644779	-0.0565332	0.114478	0.0122489	-0.071989	0.0602721	-0.0624438	0.0906149	0.0631375	0.0715771	-0.0673168	-0.0831758	0.087404	0.088097	0.0642703	-0.0562615	0.0529829	0.0720045	0.213836	0.0908356	0.0713235	0.0742071	-0.0171998	-0.0498627	-0.0576498	0.100982	0.0865375	-0.118874	-0.115332	0.0860957	-0.0416118	0.0621587
典雅	0.0960383	0.0919771	0.0649686	0.167225	-0.0453652	0.15236	-0.0635682	0.0998765	-0.0186176	-0.0802752	-0.04733	0.284354	-0.409062	0.113788	0.0474568	-0.0540225	0.0915837	-0.325878	-0.0963222	0.0741413	-0.0567763	0.177149	0.044486	-0.0432989	0.0704124	-0.0363001	-0.0969856	-0.0868362	0.0688327	0.0403775	-0.0130888	-0.0813341	-0.0987537	0.120141	-0.0986036	-0.0905831	-0.377347	-0.0840721	-0.0819344	-0.0587859	0.115998	0.090111	0.392251	-0.0264133	-0.0824305	0.0141726	0.0693152	-0.0317145	0.131817	-0.0959513
配件	0.0440408	-0.0630379	-0.0582612	-0.0325233	0.0699533	-0.0194969	0.0726442	-0.0471872	-0.135139	0.092122	0.126668	-0.0812113	0.0631679	-0.0653753	0.137016	0.0599508	0.450418	-0.0846266	0.0589599	-0.0498618	0.113168	-0.0695979	-0.0614999	0.0652908	-0.0509326	0.0933606	0.0772703	0.0760287	-0.0623721	-0.0861558	0.104266	0.091501	0.0637668	-0.0433733	0.0622215	0.0686923	0.089243	0.0935101	0.0789674	0.0717361	-0.0182352	-0.0504201	-0.0617368	0.0783991	0.0657008	-0.110878	-0.107288	0.0900274	-0.0492609	0.0556667
恐怖	0.165815	0.0265779	0.115922	-0.1666	-0.12594	-0.226961	-0.0951277	0.121134	-0.0616369	0.0032522	0.0567039	0.112309	-0.104413	0.0502069	-0.327806	-0.130156	-0.0261613	0.385056	-0.0400406	0.207036	0.0218168	-0.157002	0.105345	-0.115245	0.125822	-0.470901	-0.0335369	-0.0499739	0.119748	0.109004	-0.0700421	-0.279661	-0.0370307	0.0614608	-0.0370267	-0.0499332	-0.0431892	-0.0184623	-0.0443023	-0.117845	0.0486001	0.130513	0.130851	-0.0968086	-0.0320096	0.0511305	-0.0320969	-0.085854	0.0404401	-0.0442141
弹簧	0.000631848	-0.0642771	-0.063502	-9.60558e-006	0.0598255	-0.0382322	0.0809133	-0.0492773	-0.180688	0.0973659	0.0986008	-0.0705542	0.0571258	-0.0549472	0.13747	0.0644084	-0.0590425	-0.420965	0.0747737	-0.0387097	0.112057	0.0103095	-0.06522	0.0479415	-0.0736957	0.108756	0.0718638	0.082428	-0.0590266	-0.074244	0.0677791	0.0959701	0.0721201	-0.0563909	0.0550567	0.0761436	0.206824	0.0694245	0.063924	0.0839402	-0.0437401	-0.0292792	-0.0695855	0.0986512	0.0779469	-0.116833	-0.107484	0.102516	-0.0494609	0.0757102
衰弱	0.157333	0.0253145	0.10793	-0.154979	-0.123553	-0.247869	-0.0884831	0.108791	-0.0920899	-0.00335085	-0.232279	0.108119	-0.0941031	0.063223	0.000268597	-0.12812	0.0625405	-0.185213	-0.0378587	0.162859	0.0154261	-0.181631	0.0949054	-0.110914	0.116396	-0.0739422	-0.0307603	-0.0417109	0.109208	0.0985666	-0.363151	-0.0193555	-0.0292738	0.0519337	-0.0369142	-0.0524246	-0.216571	-0.300959	-0.0315774	-0.111378	0.146878	0.121401	0.123936	-0.0943149	-0.346307	0.0605085	0.26979	-0.0793278	0.03056	-0.033115
轮廓	-0.0132479	-0.0574684	-0.0704782	0.0220584	0.0739872	0.0145229	0.0735026	-0.0711055	-0.154808	0.0843112	0.125377	-0.0780532	0.455764	-0.055109	0.118152	0.0667003	-0.0882981	-0.163103	0.0565519	-0.0634297	0.0971732	0.00957132	-0.0706887	0.0646687	-0.0647697	0.0978767	0.0583633	0.0820847	-0.0754665	-0.0876557	0.101205	0.0776803	0.070624	-0.0409275	0.074558	0.0571124	0.159373	0.079312	0.0841763	0.0616544	-0.0545559	-0.0539332	-0.0587099	0.0880862	0.0426745	-0.134838	-0.0972567	0.104743	-0.043715	0.0680243
可怜	0.161979	0.0245173	0.120539	-0.222461	-0.134343	-0.219776	-0.090024	0.103188	-0.076827	-0.0015764	0.0549626	0.428327	-0.21501	0.0555406	-0.0177535	-0.1188	-0.0286522	0.0732172	-0.0259306	0.178832	-0.271017	-0.151673	0.00755467	-0.101239	0.125449	-0.387668	-0.0213006	-0.0617193	0.123152	0.103278	-0.0582615	-0.0168654	-0.277247	0.0670322	-0.042062	-0.0517986	0.0311291	0.00899156	-0.0373592	-0.104538	-0.254907	0.124187	0.108861	-0.0989866	-0.0285221	0.103112	-0.0255624	-0.0807283	0.0324032	-0.0401632
标准	-0.000354206	-0.0613953	-0.0617855	0.00658944	0.0704756	-0.0538707	0.0725017	-0.0484063	-0.138668	0.0958059	0.136336	-0.0705243	0.0608628	-0.0567637	0.272403	0.0599816	-0.0863821	-0.375566	0.0734121	-0.0497111	0.120543	0.0289462	-0.0749909	0.0752614	-0.0593261	0.0878592	0.0629735	0.0815682	-0.0591682	-0.083194	0.105658	0.107467	0.0761901	-0.0490822	0.0672925	0.0605248	0.241699	0.0877333	0.0746168	0.0643324	-0.0557403	-0.0436321	-0.057257	0.0890708	0.075211	-0.120259	-0.118749	0.0971865	-0.0576115	0.0749779
后背	0.0186038	-0.0552711	0.150579	-0.0067061	0.0787244	-0.240794	-0.230974	-0.0641175	0.0972242	-0.0268632	-0.288254	-0.101711	0.0601303	-0.0369046	0.130194	-0.0641365	0.0936608	0.431148	0.0325638	-0.0454303	-0.106229	0.0751816	-0.0743421	-0.107558	-0.0643913	0.087912	0.0137345	-0.0798175	-0.0897673	-0.0927088	0.053939	-0.180967	0.061022	-0.210444	0.0163459	-0.0487528	0.19158	0.366476	0.0225379	0.0695817	0.137607	0.267149	0.146792	0.112644	0.0589099	0.106567	0.134417	0.0860441	0.019192	0.0399805
单调	0.195056	0.0257313	0.114586	-0.162258	-0.115471	-0.374476	-0.0970134	0.111451	-0.0599566	0.00192313	0.00770422	0.10405	-0.0938758	0.0472712	-0.0206411	-0.133824	-0.0140771	-0.161671	-0.0417911	0.157057	-0.386057	-0.149484	0.0909979	-0.11958	0.117575	-0.0771421	-0.0347346	-0.0438646	0.113021	0.0969953	-0.0969593	-0.00833587	-0.0319167	0.0483143	-0.0537281	-0.0499335	-0.268192	-0.0114023	-0.0418872	-0.107472	-0.264346	0.120932	0.129931	-0.0948466	-0.0290313	0.389005	-0.029993	-0.0803183	0.0404188	-0.0403107
小	0.0689037	0.0113915	0.0957531	0.111922	0.205039	-0.171969	-0.0564793	0.113386	-0.00289988	0.00387286	0.0279045	0.0631184	-0.0900488	0.0525098	0.0817749	-0.0503615	-0.0187404	0.0606596	-0.0187693	0.135043	0.14358	0.215906	0.0264091	-0.0327677	0.117296	-0.0455022	-0.0155806	-0.0302183	0.0829603	0.0374619	0.10717	-0.020118	-0.0184421	0.0363778	-0.0346406	-0.0220378	0.0995854	-0.00133656	-0.0316427	-0.0740643	-0.209757	0.122498	0.0231244	-0.00786309	-0.0144745	-0.0322973	-0.127131	-0.0112398	-0.0290506	-0.0296877
虚位	-0.0107881	-0.0604477	-0.0727191	0.0023539	0.0766825	-0.0303934	0.0766004	-0.0620457	-0.176139	0.0816679	0.128961	-0.0905717	0.0626541	-0.0408583	0.171482	0.0631058	-0.0838939	-0.101893	0.052956	-0.0603038	0.113044	0.00883497	-0.0696058	0.0826426	-0.0631329	0.0978479	0.0543027	0.0654706	-0.0634977	-0.0865414	0.0989215	0.0992632	0.0585401	-0.0439699	0.0602375	0.0593046	0.246278	0.0874831	0.0729963	0.075735	-0.0483668	-0.0695865	-0.0661329	0.0980604	0.0638789	-0.14097	-0.110298	0.116839	-0.0377388	0.0623458
明显	0.164615	0.0572978	0.0910338	0.167471	-0.0474191	0.156351	-0.0720585	0.10255	-0.0512376	-0.0786438	-0.023023	0.0537581	-0.076382	0.103425	0.00569103	-0.116741	0.0669201	0.0689861	-0.0962474	0.0731658	-0.0236432	0.167162	0.0937627	-0.0546148	0.110418	-0.0626961	-0.0969781	-0.0734794	0.0820183	0.0411999	-0.0396668	-0.038299	-0.0833457	0.120943	-0.0928012	-0.0638114	0.149183	-0.0703494	-0.0746362	-0.0630624	0.133673	0.0933817	0.0622293	-0.0706365	-0.0642005	0.0156247	0.0497301	-0.0292681	0.112213	-0.0757385
低	0.120424	-0.00373595	0.0906032	-0.155418	-0.119216	-0.201191	-0.0468019	0.111216	-0.0471036	0.0231978	0.0868746	0.111295	-0.0753096	-0.14763	0.199278	-0.135034	0.00974653	0.00574661	-0.0269449	0.155493	0.0744699	-0.453386	0.0747683	-0.111658	0.120278	-0.0694386	-0.024617	-0.024488	-0.0240627	0.122091	0.0403975	0.158046	-0.0134436	0.00991742	-0.0213237	-0.0284143	0.463949	0.0123104	-0.0303041	-0.113566	-0.216354	0.100718	0.137993	-0.131042	-0.0269157	-0.0246188	-0.0543497	0.204772	0.0188064	-0.0218755
后劲	-0.0296712	-0.0756565	-0.0689926	0.0152527	0.0743139	0.00447052	0.0787065	-0.0576847	-0.149999	0.0922636	0.136882	-0.0735607	0.0617858	-0.0556485	0.150365	0.0637331	-0.111909	-0.194697	0.0650318	-0.0395824	0.132333	0.00984528	-0.0703587	0.0705505	-0.0644266	0.0850722	0.0602777	0.0778134	-0.0582461	-0.0826849	0.0804101	0.0902045	0.0668277	-0.0475192	0.0628586	0.0681234	0.214916	0.0922661	0.0707559	0.0689561	-0.0405971	-0.0504312	-0.0641409	0.0949751	0.0701976	-0.0994972	-0.117962	0.101089	-0.0514026	0.0653486
美妙	0.4573	0.112173	0.0676845	0.165561	-0.0542752	0.145041	-0.0682143	0.0937894	-0.0498106	-0.0834046	-0.0596477	0.0512521	-0.0706832	0.106472	0.0606899	-0.0643099	0.0817594	-0.31811	-0.10292	0.0595363	-0.0553405	0.157859	0.0606503	-0.0538541	0.0648614	-0.0381895	-0.0945425	-0.0776288	0.0690905	0.031188	-0.0299128	-0.0887659	-0.543514	0.143631	-0.106265	-0.0998671	0.128719	-0.0752114	-0.0912244	-0.0534679	0.13763	0.0872079	0.0567064	-0.0367087	-0.0773954	0.0222435	0.0653367	-0.100699	0.12781	-0.101238
颜值	-0.0162472	-0.049858	-0.0664482	0.0166981	0.0711943	-0.017461	0.389462	-0.044182	-0.148664	0.0860163	0.117963	-0.075907	0.060325	-0.0548932	0.148061	0.0584137	-0.0728193	-0.187561	0.0593399	-0.0450013	0.106106	0.00944276	-0.0713547	0.0682126	-0.0553814	0.0931051	0.0597424	0.072548	-0.0623878	-0.084565	0.0896045	0.0838658	0.0622922	-0.0411267	0.055872	0.0697795	0.184446	0.0827943	0.0711369	0.0715633	-0.0463802	-0.0451448	-0.0636295	0.0855086	0.0677907	-0.116909	-0.0987029	0.0937634	-0.0350906	0.0621364
平常	-0.175195	0.0406981	0.0699093	-0.154172	-0.0398187	-0.132494	-0.0982078	0.0795836	0.356227	-0.0392397	0.344961	0.0759412	-0.11897	0.0532138	0.257417	-0.0972549	-0.253426	0.115278	-0.121089	-0.29509	-0.00225087	-0.154719	0.0349751	-0.082853	0.0369924	-0.108906	-0.0581381	-0.0964412	0.0661426	0.066611	-0.109367	0.00854631	-0.129797	0.0685507	-0.129902	-0.103885	0.0687505	-0.00150787	-0.0480712	-0.0258555	0.0718328	0.0644074	0.0545629	0.296493	-0.130511	0.279794	0.00533424	-0.0956763	0.0819483	-0.12404
动感	-0.00673022	-0.0659441	-0.0634912	0.0474324	0.076029	0.0372783	0.0669228	-0.0489518	-0.140656	0.0876708	0.105699	-0.0731123	0.0602296	-0.0487816	-0.208316	0.053002	-0.0812528	0.0510312	0.0653436	-0.0517881	0.102255	0.024922	-0.44337	0.0610078	-0.0590573	0.0914353	0.0652559	0.0751585	-0.0662626	-0.0855213	0.089861	0.0845093	0.0694229	-0.0453749	0.0619525	0.0676792	0.214408	0.0838535	0.0681268	0.068056	-0.0522627	-0.051339	-0.0607608	0.0863399	0.0732622	-0.105433	-0.0894343	0.0933085	-0.0410347	0.0697878
难受	0.162277	0.0245753	0.123348	-0.451394	-0.115937	-0.196777	-0.0862802	0.114651	-0.00814729	-0.0113797	0.0414875	0.110957	-0.0903387	0.0415992	-0.0254124	-0.130065	-0.0205217	0.27267	-0.335747	0.1528	0.0365528	-0.14352	0.112404	-0.119947	0.119447	-0.0798523	-0.0160117	-0.047155	0.104082	0.103594	-0.312795	-0.0120848	-0.301974	0.0522006	-0.0368589	-0.0494563	0.121641	-0.00637993	-0.0431272	-0.114357	-0.220465	0.119523	0.126647	-0.089145	-0.0416336	0.0539691	-0.0306099	-0.073533	0.0785625	-0.0385816
颠簸感	-0.00633225	-0.0510675	-0.0574816	-0.0110122	0.0836163	-0.0185903	0.0733944	-0.0553062	-0.154413	0.085302	0.135795	-0.0848542	0.0717237	-0.0507956	0.172155	0.059862	-0.069592	-0.344412	0.0624441	-0.0515692	0.109267	0.038924	-0.0695442	0.0800443	-0.0617314	0.0882188	0.0621541	0.07853	-0.0693952	-0.0953296	0.132107	0.0849854	0.0567434	-0.037634	0.0559264	0.0652336	0.206446	0.0861759	0.0636542	0.0792586	-0.028762	-0.0514502	-0.0761096	0.103431	0.0725165	-0.158758	-0.10247	0.128223	-0.0315213	0.0552071
安全	0.103029	0.110918	0.0658115	0.179004	-0.565612	0.145866	-0.065269	0.09382	-0.0167909	-0.077721	-0.026818	0.0493856	-0.0722523	0.121323	0.0631735	-0.0656945	0.0934369	-0.00107969	-0.0946848	0.0685216	-0.0521883	0.183987	0.0595684	-0.0489922	0.0755977	-0.0354586	-0.101526	-0.442515	0.0652935	0.0317906	-0.00825056	-0.0839436	-0.103235	0.127056	-0.0991474	-0.0960263	-0.212655	-0.0746925	-0.0920182	-0.0606137	0.136772	0.0838332	0.0591554	-0.0380368	-0.0820998	0.0126184	0.0704625	-0.0348553	0.130489	-0.0935992
明晰	0.103582	-0.206238	0.0847388	0.145843	-0.0403963	0.117816	0.0017009	0.0232345	-0.0608659	0.0417551	-0.0247407	0.0360097	0.118424	0.125261	0.0404537	-0.0291787	0.186886	-0.385833	-0.107536	-0.16327	-0.0646022	0.399189	0.040217	-0.0275934	0.0517378	0.191188	-0.112494	0.142216	0.071449	-0.149722	0.0112696	-0.304913	-0.0832415	0.123302	-0.089113	-0.101042	0.2238	-0.133202	-0.107903	-0.0139858	0.153271	-0.136049	0.080985	-0.00198629	-0.107571	-0.246765	0.0647528	0.0924557	-0.051578	0.160129
灯光	-0.0197241	-0.0595345	-0.0638864	0.0263261	0.0637064	0.0107533	0.0678913	-0.0494499	-0.434547	0.0873366	0.103318	-0.0772764	0.0593163	-0.049856	0.12031	0.0558293	-0.0512289	-0.0335483	0.0608097	-0.0428922	0.100071	0.016893	-0.0497615	0.0558277	-0.0583998	0.086568	0.0637014	0.0743567	-0.0649697	-0.0815044	0.363419	0.0864296	0.0569114	-0.0501892	0.0603274	0.060104	0.00342825	0.0802318	0.0629543	0.0704462	-0.0372063	-0.0431202	-0.0627358	0.0901592	0.0648151	-0.0969183	-0.0962907	0.0895886	-0.0411141	0.0614977
奢侈	0.171718	0.024518	0.115194	-0.242007	-0.367067	0.13632	-0.0871546	0.110378	0.362361	0.0010268	0.0186345	0.10524	-0.0912901	0.112845	-0.00249025	-0.125849	-0.0108851	-0.249227	-0.0456047	0.168024	0.01593	-0.162471	0.0918438	-0.112347	0.119138	-0.0619691	-0.0304468	-0.0910762	0.113742	0.0993182	-0.0857984	-0.00806861	-0.0259129	0.33858	-0.279973	-0.047657	0.09713	-0.00600659	-0.0400288	-0.109532	-0.222166	0.122717	0.124007	-0.0950751	-0.0373606	0.0646699	-0.0387102	-0.0771265	0.0284919	-0.0363435
耐用性	-0.0253239	-0.0682357	-0.0658057	0.00414095	0.0618979	-0.00989471	0.0670513	-0.0454824	-0.15266	0.0906435	0.130274	-0.0715245	0.377316	-0.0432887	0.147094	0.0572344	-0.0916404	-0.331446	0.0756665	-0.0592441	0.113749	0.0255395	-0.0650705	0.0666339	-0.054166	0.0836873	0.0579315	0.0746008	-0.0674748	-0.0848792	0.0924579	0.0917136	0.0646227	-0.0540154	0.065057	0.0688542	0.18126	0.0940873	0.0677252	0.0718905	-0.0280908	-0.0471615	-0.0579942	0.0924774	0.0763353	-0.116798	-0.112502	0.0907235	-0.0484488	0.0661134
重要	0.0774606	0.103846	0.0634991	0.16005	-0.0486946	0.152603	-0.0711374	0.0946751	-0.00175054	-0.083554	-0.00990972	0.0479111	-0.0821696	0.118251	0.0534356	-0.0668072	0.101105	-0.092841	-0.0983333	0.0633958	-0.0561163	0.145734	0.0279204	-0.041715	0.0719202	-0.686181	-0.103551	-0.0834184	0.0734281	0.0422821	-0.00376344	-0.0944577	-0.0985437	0.125423	-0.101824	-0.116405	0.152888	-0.0966167	-0.101534	-0.0556981	0.13717	0.0837889	0.0696466	-0.0339128	-0.094315	0.00715601	0.349768	-0.0268968	0.126274	-0.107034
舒适性	-0.0208398	-0.0578759	-0.0590779	0.0113241	0.0630784	0.00530211	0.0704677	-0.0547427	-0.15651	0.0895515	0.10909	-0.0777365	0.0664874	-0.0548723	0.189091	0.0608689	-0.0336817	0.0764328	0.0597585	-0.0471921	0.118007	0.0437013	-0.0544892	0.0667506	-0.0630465	0.114459	0.0629012	0.0710988	-0.0659464	-0.0852766	0.0825437	0.0883694	0.0675431	-0.046262	0.0596492	0.0633886	-0.0273632	0.0849958	0.0651487	0.0764603	-0.0133463	-0.0508339	-0.0604116	0.104932	0.0628974	-0.0890412	-0.0956942	0.0994502	-0.041926	0.0652561
明亮	0.0993091	0.102488	0.433744	0.171623	-0.0491973	0.138516	-0.0656496	0.092576	-0.0210073	-0.0905308	-0.0510088	0.0454804	-0.073213	0.127591	0.0465446	-0.0678848	0.103087	-0.274939	-0.0990742	0.0613199	-0.0337161	0.179463	0.0532021	-0.426013	0.0741235	-0.0341166	-0.110213	-0.0828318	0.0065375	0.0355717	-0.0262052	-0.412327	-0.0998249	0.118386	-0.103629	-0.091511	0.157028	-0.0615735	-0.0887712	-0.0527248	0.160155	0.0921841	0.0533356	-0.0274969	-0.0846546	0.00527101	0.0997896	-0.0277521	0.1367	-0.103165
机油	-0.00158128	-0.0566008	-0.0683675	0.00561254	0.0795205	-0.0192565	0.0737529	-0.0517381	-0.139618	0.0904719	0.117374	-0.0722189	0.410324	-0.0533868	0.159903	0.0578217	-0.104116	-0.0149777	0.0592199	-0.0474421	0.112718	0.0208065	-0.0870157	0.0648908	-0.0589715	0.0898834	0.0578573	0.0618822	-0.063531	-0.0847416	0.0931854	0.091229	0.0622619	-0.0442633	0.0600356	0.0666205	0.219399	0.0793322	0.0733658	0.0727022	-0.0424103	-0.0566089	-0.0613612	0.0897312	0.0747766	-0.128481	-0.119248	0.0990602	-0.0513641	0.061822
谨慎	0.0984687	0.102296	0.061004	0.181084	-0.0375442	0.153192	-0.0994626	0.103863	-0.632014	-0.0766956	-0.0064403	0.050082	-0.0696296	0.107786	-0.335877	-0.0575107	0.0782689	0.0973191	-0.103273	0.0630595	-0.0535959	0.199621	0.0543026	-0.059675	0.0629066	-0.0395867	-0.0966817	-0.0863753	0.0814159	0.0451805	-0.0136636	-0.0806703	-0.107188	0.125009	-0.281366	-0.0891218	0.130716	-0.10073	-0.0891359	-0.0595147	0.142576	0.0874345	0.0513926	-0.0216987	-0.0914905	-0.0132812	0.0650756	-0.0554567	0.134445	-0.104052
广阔	0.0511005	0.104234	0.0678379	-0.258859	0.151248	0.158076	0.131142	0.087432	-0.0171831	-0.333611	-0.0288228	0.0539594	0.0640831	0.377502	0.0541117	-0.0617523	0.0711463	-0.281994	-0.109212	0.0667696	-0.0569129	0.249073	0.048422	-0.0533791	0.0703378	0.100364	-0.113495	-0.0244814	-0.12302	-0.173494	-0.00211786	-0.072708	0.194594	0.130395	-0.112137	-0.0913484	0.164237	-0.0815857	0.0606811	-0.0601897	0.105179	-0.189832	0.0475443	-0.0267555	-0.0921809	0.00020675	0.0513418	0.246375	0.135091	-0.116817
旋钮	-0.0171329	-0.0630298	-0.0890641	0.02109	0.0485607	-0.0209509	0.0743907	-0.0399062	-0.152336	0.0949274	0.115608	-0.0759337	0.0583647	-0.0741819	0.121541	0.0463197	-0.0753374	-0.06871	0.061381	-0.0534099	0.182022	0.0177454	-0.0496199	0.0583216	-0.0534376	0.086326	0.0684556	0.0747954	-0.0648306	-0.0756572	0.0694589	0.0823412	0.0662022	-0.0545445	0.0645248	0.0591487	0.201301	0.0944494	0.0737429	0.0655979	-0.0384315	-0.0477387	-0.106414	0.0653483	0.0676598	-0.592315	-0.0954267	0.0876859	-0.0558926	0.0666623
动作	0.0766841	-0.075995	-0.00948601	0.0333427	-0.0125419	0.0199582	0.0486601	-0.190894	0.0222953	0.0687204	-0.160832	0.0252153	-0.0911027	-0.0569499	-0.0570425	-0.0193561	0.219266	-0.397468	-0.152234	-0.121428	0.13842	-0.0163916	-0.0187998	0.0671649	0.256888	0.0561694	0.0864701	-0.108256	0.00778333	0.0930822	0.0547238	0.107951	-0.0408349	0.137366	-0.0437112	0.0326258	0.40581	0.126808	0.0839832	-0.174703	-0.0153486	0.0078393	-0.304016	-0.133389	-0.02929	0.269555	0.220632	0.186794	-0.0534677	0.0456957
特别	0.107859	0.106913	0.0576523	0.17649	-0.0426769	0.156104	-0.0681253	0.0935966	0.0302891	-0.0824076	-0.0538833	0.0440438	-0.0811603	0.118496	0.0409369	-0.0685876	0.726953	0.199374	-0.101932	0.0578532	-0.0615465	0.195616	0.0440247	-0.058614	0.0678639	-0.0390783	-0.0918654	-0.0878564	0.0614135	0.0342409	-0.0294016	-0.0886117	-0.103704	0.120809	-0.108856	-0.094425	0.172264	-0.0498351	-0.0892465	-0.0572097	0.130818	0.091167	0.0568623	-0.0359724	-0.0889126	0.00747643	0.0712097	-0.0335853	0.129033	-0.105209
排量	-0.266838	-0.0608522	-0.0674849	-0.0130092	0.0693746	-0.0136976	0.0690669	-0.0486749	0.160916	0.0908883	0.155685	-0.0797164	0.0596731	-0.0552383	0.161063	0.0483263	-0.0663925	-0.188384	0.0591004	-0.044803	0.117605	0.0188326	-0.0545654	0.0661716	-0.0522145	0.080725	0.06158	0.0705076	-0.0614767	-0.0733984	0.0804599	0.0951331	0.0580819	-0.0507556	0.0571951	0.0568263	0.207875	0.092023	0.0658968	0.0737642	-0.0449545	-0.0494329	-0.0575157	0.0938434	0.0630192	-0.111948	-0.110965	0.0915442	-0.0388168	0.0545945
厂家	0.00327051	-0.0590682	-0.0673771	0.0247567	0.350914	-0.082196	0.0561345	-0.0450898	-0.259846	0.0868008	0.145786	0.180024	-0.0710603	-0.0335416	0.0449619	-0.164186	0.213474	0.165533	0.056765	0.258078	0.098944	0.0771233	-0.242931	0.0752994	-0.053714	-0.169572	0.0669706	0.059736	0.106906	-0.0733764	-0.21825	-0.210108	0.0445188	-0.00447761	0.0517735	0.0474359	-0.0797229	0.293211	0.0697666	0.074272	0.00847279	-0.0468999	-0.0731715	-0.215093	-0.241798	-0.0595328	0.212765	0.0775888	-0.0436536	0.0421049
激烈	0.168189	0.0237718	0.113357	0.244431	-0.120794	-0.229738	-0.0871227	0.113062	-0.0754549	-0.00645725	0.0559019	0.111972	-0.0985424	0.0818926	-0.00860384	-0.325702	-0.312528	-0.233702	-0.0420461	0.165392	0.0274719	-0.159198	0.0942199	-0.114442	0.121521	-0.0686017	-0.0507946	-0.0491958	0.113426	0.0999036	-0.0853496	-0.0165463	-0.0359873	0.0961039	-0.0435613	-0.0424179	-0.25754	-0.0061321	-0.0385742	-0.113646	-0.24537	0.132738	0.1161	-0.368628	-0.0257853	0.0765491	0.209419	-0.0792381	0.0420369	-0.0431048
磨合期	-0.0230001	-0.0451467	-0.0660566	0.03077	0.0927815	-0.032761	0.0753239	-0.0470834	-0.148372	0.0815608	0.121329	-0.0810206	0.0571553	-0.0447541	0.173275	0.0637496	-0.09991	-0.278884	0.0626802	-0.0603384	0.104906	-0.0107824	-0.0968789	0.0679095	-0.0643678	0.0898042	0.066572	0.0647033	-0.0600744	-0.0881155	0.0892903	0.0900631	0.0564116	-0.0408582	0.0596017	0.0572249	0.232195	0.0700651	0.0704161	0.0966284	-0.0522834	-0.0597335	-0.0640962	0.100836	0.0692515	-0.121687	-0.107446	0.0966534	-0.0384499	0.0608272
清楚	0.0866023	0.104832	0.0729483	0.175621	-0.0352662	0.198304	-0.0584411	0.0977357	0.0630981	-0.0873757	-0.0222049	0.0441975	-0.0762305	0.109057	0.0550812	-0.0665535	0.0680127	-0.176643	-0.107158	0.0721089	-0.0581306	0.263687	0.0501069	-0.050408	0.0658394	-0.040832	-0.10323	-0.0911766	0.073286	0.622875	0.0135978	-0.0858627	-0.102302	0.118239	-0.109177	-0.0910387	-0.0295622	-0.0822838	-0.0708415	-0.0605657	0.128022	0.08886	0.0551599	-0.0195395	-0.091623	-0.0126171	0.0604647	-0.028556	0.137652	-0.385871
动态	-0.0185618	-0.0638578	-0.0650209	0.0347815	0.0873086	-0.00188653	0.0746915	-0.0489952	-0.168867	0.0910094	0.124202	-0.081039	0.0654513	-0.0600513	0.162412	0.0668182	-0.0703909	-0.200282	0.0562478	-0.0632714	0.121928	0.0547942	-0.0747819	0.0714663	-0.0648424	0.0924969	0.0645669	0.0727002	-0.0650303	-0.0826286	0.132626	0.0965374	0.0587786	-0.0452322	0.0610583	0.0659859	0.237125	0.0872604	0.072706	0.0667287	-0.044828	-0.045875	-0.0760658	0.0940745	0.0721964	-0.138052	-0.110859	0.512832	-0.0431229	0.0618621
端正	0.0907301	0.0959018	0.0581379	0.176378	-0.0439959	-0.207334	-0.0620017	0.0962163	-0.0394027	-0.0601292	-0.0241171	0.0595044	-0.07937	0.107409	0.0590476	-0.057527	0.0856949	0.199853	-0.0953048	0.12872	-0.066949	0.194965	0.0482202	-0.488777	0.070526	-0.0307694	-0.125796	-0.0784802	0.517655	0.0326437	-0.00110391	-0.0733363	-0.0990026	0.128697	-0.10244	-0.0886791	0.153049	-0.0891121	-0.095604	-0.0499081	0.150999	0.0871947	0.0488388	-0.0230774	-0.064404	-0.0126096	0.0586265	-0.0202966	0.118224	-0.0852401
整体	-0.319299	-0.0610177	-0.0665252	0.0414029	0.0618365	0.00753712	0.0640435	-0.0465761	-0.141362	0.0806293	0.0930638	-0.0771946	0.0615886	-0.0544702	0.132963	0.0553632	-0.0501287	0.234478	0.0539269	-0.051013	0.107545	0.0059519	-0.0932041	0.0764292	-0.0556908	0.0825551	0.0631222	0.0729974	-0.0660724	-0.0774977	0.0808482	0.0716138	0.0640088	-0.0444511	0.0553877	0.0620285	-0.225487	0.0814643	0.0627315	0.0665886	-0.024031	-0.0499102	-0.0568842	0.0956881	0.064037	-0.101446	-0.0843023	0.0903971	-0.0368447	0.0584607
基本	-0.201058	0.0420425	0.0555513	-0.147628	0.0106189	-0.153906	-0.126511	0.0862758	0.2556	-0.066387	0.295114	0.00588972	-0.120131	0.0537528	0.284519	-0.0966014	-0.361893	0.162989	-0.134262	-0.315875	-0.00645398	-0.167677	0.0211138	-0.0811286	0.0343303	-0.130326	-0.064722	-0.11025	0.0727954	0.0767589	-0.114916	-3.73191e-005	-0.126817	0.0838839	-0.144767	-0.119276	-0.117429	-0.0310034	-0.0741331	-0.031739	0.0875086	0.0570389	0.0669811	0.291426	-0.140451	-0.0371676	0.0148657	-0.102381	0.10816	-0.138501
噪音	-0.00827866	-0.0611277	-0.0626275	0.014361	0.0709565	-0.244962	0.0725717	-0.0439896	-0.101759	0.0879231	0.113695	-0.0718602	0.0579971	-0.049063	0.148551	0.0570398	-0.401888	0.00741838	0.0578047	-0.0416933	0.0976576	0.0238283	-0.0740744	0.0652832	-0.0539765	0.0827124	0.0575553	0.0710632	-0.0619238	-0.0834801	0.0779704	0.0864994	0.0602454	-0.0428559	0.0575129	0.0659227	0.140041	0.0731371	0.0603157	0.0725397	-0.034975	-0.044572	-0.0626432	0.0947372	0.0656702	-0.125926	-0.0983301	0.091683	-0.0356993	0.0643262
轻	0.411964	-0.495456	0.0769845	0.173775	-0.052215	0.164339	-0.0647398	0.0883433	-0.00701191	-0.0330049	-0.0628838	0.0422077	-0.0782021	0.112926	0.0603004	-0.136264	-0.223454	-0.214769	-0.108635	0.157289	-0.0600747	0.173554	0.0982365	-0.0968142	0.0904377	-0.0313125	-0.117436	-0.0833751	0.113115	0.0322244	-0.226987	-0.0975645	-0.102678	0.131242	-0.102841	-0.0928309	-0.18641	-0.0899279	-0.0923558	-0.0546544	0.144994	0.11126	0.0646766	-0.0515693	-0.0505246	0.014036	0.065789	-0.0335444	0.101574	-0.0314673
主动	-0.0538238	0.104968	-0.107967	0.166963	-0.0611418	0.140072	-0.0579701	0.0344531	0.150804	0.191856	0.217542	0.060001	0.140821	0.128363	0.0486266	-0.0567018	0.0888323	-0.434415	-0.0957472	0.0440537	-0.0496976	0.205436	0.0361323	-0.0420485	-0.00368437	-0.0399912	-0.101229	-0.0799232	-0.22636	0.0258658	0.275658	0.12669	-0.256419	0.12176	-0.104231	0.189028	0.174924	-0.0692191	0.165728	-0.0607215	0.100028	0.0883515	-0.0277756	-0.0173517	-0.0933257	0.00210453	0.0571342	0.219812	0.139928	-0.10609
音质	-0.00560056	-0.0782265	-0.0617821	-0.00719268	0.0689803	-0.023786	0.0679678	-0.0417847	-0.162843	0.089584	0.108019	-0.0812438	0.0545347	-0.0477461	0.149252	0.0560899	-0.0609352	-0.291668	0.0679938	-0.0482696	0.122801	0.00780855	-0.0596256	0.0776367	-0.0697927	0.0889661	0.064519	0.0732394	-0.0618157	-0.0777295	0.370094	0.0823437	0.061891	-0.0522271	0.0586259	0.0640705	0.200128	0.0831564	0.0698346	0.0730487	-0.0391635	-0.0431812	-0.0615691	0.082954	0.0726202	-0.10895	-0.0952696	0.0908411	-0.0481855	0.0570376
轻快	0.103687	0.0931286	0.060147	0.247352	-0.0376957	0.155479	-0.0680634	0.0929698	-0.0158501	-0.0799678	-0.0358819	0.0472807	-0.0793569	0.121612	0.0691394	-0.0653162	0.102855	-0.033901	-0.106857	0.0626884	-0.0570909	0.189509	0.050095	-0.0731033	0.0760596	-0.0389814	-0.107056	-0.454505	0.070099	0.0418572	-0.0144721	-0.0799925	-0.0935732	0.123118	-0.102068	-0.0932753	-0.220851	-0.101441	-0.101076	-0.0597334	-0.562036	0.0931305	0.0689165	-0.0219349	-0.0958032	0.00532666	0.0637642	-0.0239569	0.131983	-0.0897864
昏暗	0.202985	0.0066995	0.122492	-0.193445	-0.133622	-0.193533	0.0840709	0.0378164	-0.0821149	0.0150658	0.136539	0.111536	-0.0960242	-0.247996	-0.0160326	-0.137091	-0.0339175	-0.148298	0.266707	0.160008	0.109535	-0.151955	0.089394	-0.110321	0.129844	-0.0825037	0.161493	0.129523	0.1195	0.108789	-0.0860396	0.0192344	-0.0228569	-0.116097	-0.0172094	0.204499	0.0921086	0.274242	0.243057	-0.111185	-0.210779	0.130644	0.329112	-0.0961283	-0.0250195	0.133572	-0.0473266	-0.0760728	0.0115469	0.14307
灵活性	-0.00912929	-0.0593077	-0.0639956	-0.0233126	0.0767555	-0.0573288	0.0641855	-0.0463381	-0.155313	0.0857328	0.131207	-0.0755905	0.0626118	-0.0525925	0.158619	0.0508852	-0.0666974	-0.311801	0.0543178	-0.0504262	0.120549	0.0182699	-0.0658911	0.0554001	-0.0610054	0.087138	0.0610415	0.0691892	-0.0637839	-0.0864474	0.0841513	0.082045	0.0610844	-0.0472189	0.0546794	0.0644379	0.202802	0.079079	0.37982	0.0656163	-0.0393473	-0.0503381	-0.0587135	0.08339	0.0727771	-0.110234	-0.11166	0.0863632	-0.0388927	0.0555493
好	0.0728849	0.0958918	0.0630382	0.181342	-0.0355448	0.148633	-0.0723937	0.100247	-0.027909	-0.0773374	-0.0165091	0.03919	-0.0671379	0.108582	0.0553563	-0.0649452	0.0601394	-0.0995042	-0.103759	0.0561432	-0.0367992	0.202639	0.0295074	-0.0454961	0.0684356	-0.0488696	-0.0934919	-0.0867508	0.0709286	0.0374232	0.310068	-0.0759737	-0.102904	0.116942	-0.104108	-0.0895333	0.176324	-0.0764769	-0.0804885	-0.0652865	0.123014	0.0816184	0.0520358	-0.0164459	-0.0759168	-0.00694745	0.0499578	-0.0364128	0.125673	-0.0911891
智能	-0.0122044	-0.0695637	-0.0677144	0.0209851	0.0853141	-0.0263303	0.0771158	-0.0512048	-0.167245	0.0909163	0.136517	-0.0749249	0.0655369	-0.0587761	0.160552	0.0806523	-0.0704428	-0.142263	0.0654049	-0.0531787	0.131751	0.0393822	-0.0649522	0.0914177	-0.0600723	0.0922509	0.063596	0.0772712	-0.062026	-0.0873873	0.359834	0.0995032	0.0635798	-0.0528983	0.0684675	0.0875063	0.205145	0.0907395	0.0665403	0.0721292	-0.0404562	-0.059242	-0.327968	0.103702	0.0967825	-0.138135	-0.113004	0.098573	-0.0518265	0.0700458
独特	0.0825342	0.0926049	0.0632332	0.206479	-0.394037	0.209604	-0.104724	0.105015	-0.0310816	-0.0864902	-0.0557044	0.0451463	-0.0748912	0.119268	0.0381185	-0.0899507	0.0786796	-0.44485	-0.101376	0.041179	-0.0765755	0.1656	0.0461863	-0.0366455	0.0807587	-0.057658	-0.108442	-0.4472	0.0817104	0.0516439	-0.0118652	-0.0825257	-0.108198	0.118851	-0.103065	-0.104721	0.197125	-0.0883142	-0.0887972	-0.0585562	0.134698	0.0816218	0.062422	-0.0356335	-0.097184	0.00798535	0.07905	-0.0307271	0.132442	-0.0866466
低劣	0.166785	0.0125772	0.114887	-0.131431	-0.119341	-0.179915	-0.0855726	0.150534	-0.0741098	0.248238	0.0340998	0.113707	-0.214809	0.0477754	-0.214667	0.219363	-0.0150234	-0.250442	0.134503	0.168104	0.0226216	-0.168755	0.109831	0.1416	0.126644	-0.0656759	0.0804241	0.0104909	0.116105	0.107867	-0.0713743	-0.00411981	0.123933	0.0378356	0.169077	0.243887	0.0678175	0.000391548	-0.035934	-0.108798	-0.299121	0.13315	0.225845	-0.108483	0.0910981	0.0861159	-0.0373072	-0.0828487	-0.131155	0.171655
优点	-0.00841149	-0.0643782	-0.0632547	0.0225961	0.0775893	-0.0240456	0.0682632	-0.0425949	-0.194114	0.0986593	0.137064	-0.072107	0.0542464	-0.0635521	0.177686	0.0530896	-0.0910238	-0.0889608	0.0654558	-0.0561118	0.10557	0.0260834	-0.0695749	0.0834372	-0.0493724	0.0960302	0.0492155	0.0668886	-0.0521083	-0.0820169	0.0936067	0.0978695	0.0693937	-0.0515209	0.0650174	0.0682159	0.21602	0.0978041	0.0656272	0.0678005	-0.0284183	-0.0446871	-0.0629786	0.084559	0.0675169	-0.130984	-0.119866	0.0866396	-0.0736232	0.0784296
浅色	-0.0111774	-0.0314525	-0.06808	0.011486	0.0788701	-0.0656111	0.0671282	0.0418084	-0.300098	0.104398	0.139349	0.159429	-0.0363062	-0.06635	-0.174216	0.371165	-0.106191	0.0164949	0.0209761	0.0248717	0.120014	0.0526694	0.155818	0.0570494	0.0387164	0.087213	-0.263405	-0.19176	0.199154	0.21414	0.296182	-0.198811	0.0615772	-0.0334447	-0.233815	0.071365	0.064924	0.0346528	0.0846207	-0.198542	0.0216156	-0.0345622	-0.0581742	0.0979512	0.0808315	-0.127002	0.288978	0.0817929	-0.0544533	-0.10493
友好	0.0773238	-0.277624	0.0631622	0.261187	-0.0491541	0.164447	-0.067643	0.0889444	-0.0244624	-0.0797761	-0.023646	0.0485092	-0.0787038	0.108843	0.0732251	-0.0688745	0.0739319	-0.0629821	-0.150925	0.0598749	-0.0547845	0.20792	0.072104	-0.0485558	0.0477509	-0.0300394	-0.106276	-0.0887133	0.0679434	0.34735	0.0157458	-0.0787489	-0.0967222	0.120002	-0.509462	-0.0905843	-0.068234	-0.0817472	-0.0947784	-0.356893	0.170368	0.0839138	0.0538604	-0.0208399	-0.0887622	-0.00185747	0.0639235	-0.0414287	0.127264	-0.101187
声音	0.0289954	-0.577603	-0.0653067	0.0207313	0.066322	-0.272064	0.0676619	-0.0490761	-0.0883005	0.0863793	-0.183783	-0.0766552	0.0634185	-0.0490389	0.139678	0.0524916	-0.0281857	0.228149	0.0596563	-0.0473914	0.111392	0.100609	-0.0721345	0.0769774	-0.0610592	0.0934868	0.0598604	0.0657093	-0.0643436	-0.0812793	0.0843996	0.0840822	0.0520233	-0.0345267	0.054871	0.0639554	0.207255	0.0766965	0.0640725	0.0775161	0.027708	-0.0518605	-0.0621458	0.0934777	0.0593136	-0.118658	-0.063057	0.0948681	-0.0348508	0.0649929
不行	0.175706	0.025054	0.12204	-0.190507	-0.132522	-0.195268	-0.0940507	0.119019	-0.0885028	-0.0101925	0.0190436	0.118311	-0.102565	0.0442669	-0.00589617	-0.138226	0.0638851	0.497886	-0.0473574	0.176149	0.0233936	-0.211346	0.117125	-0.113969	0.133203	-0.0814553	-0.033667	-0.044307	0.120886	0.114446	-0.103453	-0.0137442	-0.0313513	0.0623307	-0.0347885	-0.106456	-0.439822	-0.00868555	-0.0467009	-0.121179	-0.230755	0.123151	0.138766	-0.113463	-0.0466382	0.0964435	-0.0261591	-0.0841339	0.0321247	-0.0437042
软包	-0.0250599	-0.0617796	-0.0601774	0.0404377	0.0748115	-0.00415869	0.0778791	-0.0429214	-0.151228	0.0881265	0.115127	-0.0763923	0.0752681	-0.0443008	0.160117	0.0589466	-0.0431079	-0.0127351	0.0588417	-0.051745	0.1188	0.0277764	-0.053176	0.0744165	-0.0591036	0.0919511	0.0602768	0.077843	-0.0713082	-0.0839001	0.374359	0.0631687	0.0665557	-0.0429292	0.0544342	0.0714333	0.536574	0.0826135	0.0740792	0.06933	0.00885969	-0.0490312	-0.0597541	0.0877303	0.0706228	-0.106869	-0.0965219	0.138497	-0.0449845	0.0736081
正常	-0.164246	0.0472609	0.0546154	-0.129936	-0.0273583	0.148495	-0.0956584	0.0873778	-0.0155353	-0.0561452	0.301555	0.0203328	-0.0856351	0.100751	0.286993	-0.0793992	-0.247046	0.129813	-0.110564	-0.227994	-0.0338517	-0.164071	0.0237131	-0.0484912	0.0557848	-0.0994886	-0.0813623	-0.0933446	0.0679591	0.0405766	-0.104497	-0.0269859	-0.111944	0.120064	-0.122326	-0.097191	0.257927	-0.0460139	-0.0854822	-0.027015	0.112014	0.0728591	0.0613536	0.260803	-0.101772	-0.0156488	0.0298091	-0.096586	0.0974513	-0.102136
感觉	-0.404221	-0.0639466	-0.0598343	0.0206162	0.0627353	0.00432093	0.0744671	-0.0504784	0.0296455	0.0871757	0.0960347	-0.0827211	0.0646388	-0.0529879	-0.193516	0.0564131	-0.0533292	0.240115	0.0639178	-0.0410322	0.100597	0.0161693	0.100207	0.0532391	-0.0569393	0.0921414	0.0651151	0.077838	-0.0591735	-0.0825193	0.0765434	0.0805036	0.0649603	-0.0535528	0.0626986	0.0658447	-0.234788	0.0907078	0.0655215	0.0704344	-0.022208	-0.0426857	-0.0646754	0.0923531	0.0634328	-0.0939746	-0.0955008	0.0967568	-0.0400462	0.0635472
高	0.0928691	0.0897169	0.0628593	0.168781	-0.0735918	0.119302	-0.0865536	0.10641	-0.0107937	-0.0755063	0.0143785	0.0538063	-0.0779296	0.119892	0.0507614	-0.0847446	0.0878151	-0.112437	-0.0917857	0.0688275	-0.0202997	-0.175526	0.0470371	-0.0654338	0.0873068	-0.0748246	-0.0992737	-0.0766392	0.093111	0.0805795	-0.0420925	-0.0824012	-0.0955654	0.122351	-0.10486	-0.0837433	-0.090039	-0.0848151	-0.085981	-0.0726693	0.145785	0.098509	0.0854968	-0.0875663	-0.0784368	0.00899353	0.0542956	-0.0506162	0.123586	-0.0912946
情况	-0.0121058	-0.0592597	-0.0650472	0.0298869	0.0825864	-0.0696732	0.0602517	-0.0511629	-0.128454	0.0939231	0.128813	-0.080787	0.0574404	-0.0551244	0.476651	0.0567535	-0.0746956	-0.268036	0.0694172	-0.0576132	0.102499	0.0235951	-0.0661477	0.0678518	-0.0655965	0.0925291	0.0681757	0.0758334	-0.0584924	-0.0794642	0.0812189	0.0941239	0.0578284	-0.051942	0.0672579	0.0701466	0.17415	0.0915292	0.0798638	0.0733103	-0.0528012	-0.0454874	-0.0632583	0.0812604	0.0704563	-0.119944	-0.0965658	0.0926775	-0.0439962	0.0709119
努力	0.0989257	0.112834	0.0609658	0.178618	-0.0442679	0.101637	-0.0715232	0.0997809	-0.0339482	-0.073934	-0.0228976	0.323315	-0.0745639	0.124558	-0.338134	-0.0651599	0.0950092	-0.387976	-0.0991768	0.0648698	-0.0684561	0.196089	0.0501269	-0.0552783	0.06869	-0.0370664	-0.105543	-0.085542	0.0649587	0.038069	-0.02384	-0.0730876	-0.103248	0.107534	-0.110423	-0.0947931	0.0183148	-0.0683871	-0.08364	-0.0554455	0.149343	0.0848447	0.0527344	-0.336276	-0.408943	0.00281482	0.0640728	-0.0305248	0.122947	-0.0966277
油耗	-0.0142786	-0.0680172	-0.0661146	0.0127667	0.0708501	0.0234055	0.0734743	-0.0468901	0.159352	0.100695	0.122486	-0.0781612	0.0566427	-0.0530119	0.503403	0.0617831	0.0342844	0.115546	0.0637456	-0.052763	0.102274	0.0296886	-0.056208	0.0640842	-0.0556083	0.0923308	0.0578723	0.0696384	-0.0638441	-0.0790642	0.10125	0.0941505	0.0622811	-0.0510705	0.060238	0.0674667	0.0700377	0.0854173	0.0644436	0.0817807	0.0164132	-0.0498389	-0.054486	0.0902985	0.0688104	0.0383473	-0.0980002	0.0938175	-0.0421547	0.0595499
头疼	0.173156	0.0887281	0.117733	0.164579	-0.129605	-0.192246	-0.0941093	0.119669	0.271533	-0.00341149	0.0207587	0.115454	-0.101992	0.185251	-0.0107152	-0.13116	0.101415	0.162318	-0.04844	-0.324881	-0.0319633	-0.14043	-0.219898	-0.125877	0.12573	-0.0808969	-0.11962	-0.0496913	0.118529	0.10645	-0.0813655	-0.0389821	-0.0682165	-0.225204	-0.0393159	-0.0549188	-0.0283938	-0.0713782	-0.048462	-0.118947	-0.211246	0.124203	-0.180139	-0.110378	-0.0394199	0.223514	0.0343604	-0.0759756	0.333691	-0.0735492
品质	0.00278089	-0.0672801	-0.0613495	-0.000201199	0.0631883	-0.0299167	0.0685631	-0.0473512	-0.151085	0.0926435	0.131301	-0.0709751	0.0607584	-0.0483155	0.148065	0.04974	-0.0753491	-0.0999644	0.0559784	-0.0355555	0.111182	0.0310166	-0.0550146	0.065322	-0.0517259	0.09016	0.0592401	0.0758752	-0.0601266	-0.0823719	0.104755	0.0919465	0.0628893	-0.0461039	0.0682493	0.0598659	0.233608	0.0886406	0.0609915	0.0651346	-0.0345333	-0.051989	-0.0607676	0.0877528	0.0729518	-0.399249	-0.103284	0.0984388	-0.0508813	0.0573683
可靠	0.116192	0.111702	0.0678757	0.211113	-0.0667711	0.168909	-0.0724044	0.0926933	-0.0225079	-0.083682	-0.0424672	0.518253	-0.0739395	0.11632	0.021456	-0.0698977	0.0929913	-0.072583	-0.097017	0.0616198	-0.0495996	0.195414	0.0663327	-0.0494729	0.0756957	-0.0417056	-0.10315	-0.0808352	0.0670108	-0.543351	-0.0198841	-0.074624	-0.10302	0.12094	-0.0971232	-0.0939446	-0.0167254	-0.0836714	-0.141419	-0.0609751	0.107874	0.0895596	0.0654554	-0.0270324	-0.102714	0.013822	0.0737818	-0.0306306	0.13075	-0.0995448
故障率	-0.00836748	-0.0741415	-0.0647732	0.00089788	0.0795487	-0.0607976	0.0777744	-0.0545772	-0.16432	0.0990741	0.133797	-0.0724685	0.0653922	-0.0566351	0.178367	0.0640466	-0.0801431	-0.16389	0.0693302	-0.0385615	0.131187	0.0188767	-0.0846104	0.0813192	-0.061038	0.0902462	0.0693535	0.074641	-0.0716467	-0.0844832	0.135906	0.0903847	0.061264	-0.0560704	0.0655607	0.0677317	0.223296	0.121414	0.0742097	0.0751067	-0.0307809	-0.0509335	-0.0638768	0.10072	0.0630543	-0.139483	-0.106594	0.128984	-0.0491056	0.0712008
少	0.16035	0.0370932	0.0969047	-0.467365	-0.110617	-0.189415	-0.0860238	0.110855	-0.0257234	-0.0265968	-0.0205784	0.0515815	-0.089925	0.0525013	0.0471654	-0.129178	-0.237644	0.077137	-0.10146	0.153018	0.0140575	-0.455343	0.0858237	-0.0926205	0.0955977	-0.0771795	-0.0408129	-0.06193	0.0921936	0.0983546	-0.0960281	-0.0122792	-0.111176	0.0651204	-0.0545868	-0.0788551	0.130048	-0.0416684	-0.0641843	-0.0793203	0.130276	0.124166	0.0556434	-0.0452666	-0.0561518	0.027488	0.0126926	-0.0817224	0.138699	-0.0448743
温度	-0.0138979	-0.0604923	-0.0709804	0.0271658	0.0847296	-0.0255335	0.0779875	-0.0507089	-0.155998	0.0893131	0.155716	-0.0837985	0.0667671	-0.0588037	0.165844	0.0661007	-0.0830778	-0.0805731	0.0643941	-0.0578878	0.119708	0.0269579	-0.0692859	0.073823	-0.067917	0.109167	0.0645293	0.0813768	-0.0696512	-0.0920295	0.11845	0.0859055	0.0657815	-0.048391	0.066933	0.0764917	0.239559	0.0942943	0.0603327	0.0793039	-0.0513357	-0.0823057	-0.0701064	0.129737	0.0692321	-0.1431	-0.106388	0.103942	-0.0377795	0.0646726
精密	-0.218859	0.0955062	0.0586521	0.198991	-0.0377168	0.138613	-0.0634848	0.1024	-0.0242344	-0.0730075	-0.0272114	0.0446895	-0.0718191	0.107333	0.0572505	-0.0669418	0.097209	-0.43687	-0.0976774	0.0618097	-0.0537092	0.19119	0.046271	-0.063912	0.0728349	-0.0808194	-0.0971278	-0.0783396	0.293582	0.301032	-0.0208942	-0.0725381	-0.0946131	0.114312	-0.0918347	-0.0793314	0.149504	-0.0617894	-0.0916151	-0.0581264	0.151949	0.0850393	0.081737	-0.430737	-0.0827831	-0.0090784	0.0542059	-0.0295973	0.131416	-0.0871611
力度	-0.0111618	-0.0744783	-0.0672115	-0.00386615	0.0755851	-0.0331218	0.0716592	-0.0489495	-0.143112	0.0923306	0.124785	-0.0824889	0.0598331	-0.0527357	0.144803	0.0592378	-0.0635508	0.384887	0.062173	-0.0441147	0.113441	0.0362734	-0.0575611	0.056312	-0.0632024	0.0928907	0.0622651	0.0764428	-0.0646732	-0.083882	0.0814516	0.0820339	0.064496	-0.0451566	0.065753	0.0619364	0.228079	0.0737747	0.0636752	0.0724447	-0.0202993	-0.0475544	-0.0512492	0.0971605	0.0624685	-0.106477	-0.0990746	0.0976204	-0.0449024	0.0629477
自信	0.100785	0.108817	0.058443	0.150184	-0.0581601	0.129321	-0.0664783	0.07905	0.21634	-0.0809305	-0.0261262	0.050316	-0.0745544	0.121936	0.0476943	-0.0735212	0.0880953	-0.176086	-0.100136	0.0721955	-0.108372	0.192038	0.0540932	-0.0705366	0.0697451	-0.0350987	-0.100743	-0.088439	0.0609267	-0.292949	-0.0218153	-0.419423	-0.104649	0.128139	-0.113104	-0.0913832	0.154377	-0.073686	-0.0986094	-0.0534887	0.110612	0.419762	0.0619807	-0.0300164	-0.0914929	0.310015	0.0737017	-0.0221062	0.152491	-0.115871
直径	-0.0146411	-0.0590002	-0.0714955	0.031876	0.0703122	0.0190301	0.0699595	-0.0467971	-0.154542	0.0816117	0.122784	-0.0746081	0.0590282	-0.0457936	0.145647	0.0603529	-0.0678594	-0.356059	0.0585506	-0.0705921	0.114884	0.0281546	-0.0658174	0.0722599	-0.0616345	0.0928099	0.0627696	0.0743914	-0.0656584	-0.088065	0.247052	0.0872744	0.0665153	-0.0474618	0.062362	0.0566406	0.199019	0.093599	0.0627009	0.0708822	-0.0293368	-0.0509516	-0.0696428	0.0859079	0.0630803	-0.111661	-0.102829	0.0954354	-0.0482062	0.0578626
稳定	0.101883	0.115309	0.0643346	0.178196	-0.0505313	0.194932	-0.0634049	0.092828	-0.0245771	-0.0832285	-0.0392489	0.0497465	-0.0812063	0.508873	0.0576137	-0.065918	0.0874075	-0.16707	-0.107718	0.0599317	-0.0615383	0.189163	0.0577145	-0.0504006	0.0786179	-0.0291548	-0.570787	-0.0861275	0.0605102	0.0304674	-0.0076998	-0.0928787	-0.10018	0.126047	-0.0975972	-0.0908975	-0.0317999	-0.0748153	-0.0853084	-0.0534556	0.126508	0.0924909	0.0540839	-0.0331786	-0.0940451	0.00399528	0.0719825	-0.0230288	0.142227	-0.0921551
扭矩	-0.0236545	-0.0733168	-0.0654043	-0.0322308	0.072189	-0.0335082	0.070129	-0.0457101	-0.140133	0.093349	0.14543	-0.0763594	0.0701795	-0.0560703	0.177172	0.0515431	-0.0901037	-0.323046	0.0668235	-0.0495643	0.152777	0.0393943	-0.0597309	0.0739206	-0.0599349	0.0886011	0.0726478	0.0743685	-0.0674752	-0.0775681	0.0798947	0.100057	0.05443	-0.10793	0.0631878	0.0608134	0.201665	0.0874193	0.070969	0.0694433	-0.0452017	-0.0474832	-0.0599912	0.110564	0.064327	-0.117125	-0.102284	0.0947545	-0.0473197	0.0561961
一般	-0.199094	0.0399996	0.0475633	-0.155926	-0.0170394	-0.191362	-0.12174	0.0865701	0.0209158	-0.0496567	0.350665	0.02782	-0.123084	0.0487999	0.283908	-0.0877732	-0.286115	0.124616	-0.129189	-0.337002	-0.0358049	-0.185319	0.0181793	-0.0839381	0.0432379	-0.134062	-0.0535077	-0.108382	0.0749322	0.0720795	-0.117652	0.0154018	-0.131554	0.0759284	-0.137027	-0.127759	0.285745	-0.0195062	-0.0775318	-0.025058	0.0997056	0.0533066	0.0679845	0.302333	-0.136139	-0.0183076	0.0154544	-0.110549	0.0898669	-0.124221
倾斜度	-0.0151656	-0.0691044	-0.0659022	0.0121302	0.0746482	-0.0587892	0.0811941	-0.0539126	-0.154459	0.0921801	0.12969	-0.0757998	0.0551011	-0.0501465	0.163662	0.0545179	-0.0667322	-0.360739	0.0659767	-0.0605008	0.129213	0.0333948	-0.0676668	0.0808756	-0.0598971	0.0883723	0.0687905	0.0738087	-0.0594433	-0.0842733	0.114527	0.0852972	0.0598436	-0.0569907	0.0642367	0.0618293	0.211709	0.0915871	0.0684761	0.0732877	-0.0259621	-0.0460608	-0.0649212	0.0973599	0.0574123	-0.141283	-0.107725	0.0982601	-0.0539665	0.0638545
时间	0.0695672	-0.0233341	-0.0684016	-0.0791031	0.0463733	-0.0205545	0.0373624	-0.040647	0.106247	0.0837618	-0.140297	-0.0666881	0.0473325	-0.0753964	0.144348	0.052389	-0.222279	0.280158	0.0572397	-0.0545466	0.127892	-0.262889	-0.0602523	0.044664	0.100918	-0.140534	0.0722116	0.0661739	-0.048622	-0.0714053	-0.172928	0.105466	-0.241138	0.235536	0.0401822	0.0574065	0.174814	-0.121166	0.355956	0.0614692	-0.16386	0.0140586	-0.43274	0.103406	0.0451824	-0.127975	0.207384	0.0214375	0.0240428	0.0442447
头顶	-0.0257908	-0.0749937	-0.0722152	-0.270548	0.06813	-0.051386	-0.0963574	0.188026	0.0892831	-0.171474	0.139235	-0.0694616	-0.265256	-0.239946	0.0971445	0.0529118	-0.104268	-0.185867	0.0589302	-0.0645137	0.146547	0.261925	-0.0933286	0.06527	0.0717078	-0.13578	0.0473877	0.066023	-0.0547202	-0.0499289	0.0835169	-0.25292	0.0761267	0.224966	0.0479885	-0.107853	-0.0279802	0.103265	-0.212364	0.0657765	-0.0564004	0.127246	-0.0396154	0.0395905	-0.00179475	0.217465	-0.150129	0.365965	-0.0495583	0.0397457
痛苦	0.165344	0.0218126	0.115367	-0.132961	-0.131155	-0.221756	-0.0919185	0.364713	0.16075	-0.000989681	0.0233421	0.107706	-0.411574	0.0529418	-0.00900526	-0.133735	-0.0142779	-0.231636	-0.0421142	0.164663	0.0243068	-0.149531	0.107892	-0.129555	0.126068	-0.0782874	-0.029609	-0.0452569	0.114975	0.103727	-0.0831684	-0.0170396	-0.0305113	0.0550814	-0.0501243	-0.245745	0.00812171	-0.00172727	-0.0369851	-0.118413	-0.224494	0.126369	0.132975	0.210284	-0.0276285	0.303127	-0.0291249	-0.0812202	0.0366162	-0.0375034
能用	-0.187746	0.016327	0.0306401	-0.144224	0.0213895	-0.14421	-0.126107	-0.070611	0.0076544	-0.0373916	0.31435	-0.130135	-0.121234	-0.137098	0.273671	-0.0943672	-0.268321	0.1244	-0.137897	-0.305171	0.00282766	-0.162499	0.00239221	-0.080536	-0.0768594	-0.130372	0.162595	-0.107901	0.0597381	0.0690455	-0.13551	0.110351	-0.132654	0.0634324	-0.142924	-0.117399	0.220125	0.0919902	-0.0674765	-0.0039067	0.0836319	-0.00705062	-0.171454	0.272929	-0.188616	-0.0632352	-0.00188542	-0.102234	0.0706392	-0.147368
鲜明	0.0849211	0.0936191	-0.20048	0.169515	0.261776	0.235964	-0.0604541	-0.218676	-0.0238913	-0.0812534	-0.0555848	0.0421453	0.0521458	0.118283	0.0678648	-0.05922	0.077744	-0.260139	0.211862	0.102428	-0.0866365	0.166724	0.0533802	-0.0522784	-0.240347	0.238971	0.111369	-0.0799835	0.0591047	0.0159928	0.333994	-0.0853501	-0.0989449	0.206534	-0.109632	-0.0923227	0.100225	-0.0857212	-0.0984708	-0.0543808	0.136259	0.0761337	0.0384667	-0.0173308	0.150549	-0.00631833	0.0747492	-0.0226999	0.137227	-0.091311
良心	0.0967018	0.433764	0.0530097	0.160108	-0.024997	0.0937837	-0.0190215	0.0894749	-0.0589149	-0.0841263	0.0853867	0.0456362	0.153419	-0.187979	0.0843524	-0.0419761	0.425626	0.0189798	-0.0928037	0.0578903	-0.0485803	0.207345	0.0418858	-0.0217098	-0.217001	0.231075	-0.0923681	-0.0735206	0.0543947	-0.0836696	0.00320665	-0.0734723	-0.0968524	-0.136842	-0.0957242	-0.0883455	0.175315	-0.0754542	-0.116005	0.0913167	0.113555	0.0791804	-0.156121	-0.013359	-0.270852	-0.134555	0.0491187	0.0521637	0.142415	-0.103618
顿挫感	-0.00167987	-0.0454003	-0.0713789	0.00799413	0.107831	-0.0304681	0.0711384	-0.0525803	-0.138152	0.0859693	0.150781	-0.0793525	0.0689258	-0.0391213	0.158907	0.0549675	-0.0765814	-0.446585	0.0631429	-0.0523122	0.115621	0.0275198	-0.0686024	0.0644063	-0.0609605	0.0943019	0.0764176	0.0724811	-0.0652093	-0.0859372	0.122198	0.087071	0.05628	-0.0407643	0.0586841	0.0697826	0.181103	0.0858696	0.0710066	0.0734909	-0.0821354	-0.0522144	-0.0863897	0.0971332	0.081503	-0.110833	-0.102523	0.098257	-0.0325534	0.0650459
严重	0.174897	0.0258348	0.443209	-0.137439	-0.12675	0.284244	-0.0862919	0.110265	0.0136288	-0.000105884	0.0168038	0.111942	-0.10724	0.0569432	-0.00853399	-0.126625	-0.0157095	0.213638	-0.04095	0.166492	0.0301296	-0.216704	0.417227	-0.111888	0.134813	-0.0706299	-0.0326198	-0.0430804	0.113024	0.104671	-0.0778462	-0.00460964	-0.0280783	0.0628545	-0.0320525	-0.0385547	0.108651	-0.00713909	-0.0364286	-0.111086	-0.294507	0.128178	0.120527	-0.0992674	-0.0223542	0.0730396	-0.031296	-0.0752268	0.0439964	-0.0301027
车速	-0.0134348	-0.0761127	-0.0649713	0.0198879	0.0726043	-0.05425	0.072071	-0.0519312	-0.143528	0.0887508	0.113788	-0.0761199	0.0614009	-0.0614833	0.148058	0.0525034	-0.075633	-0.188385	0.0669769	-0.0382309	0.12339	0.0251035	-0.0503119	0.0589285	-0.0573279	0.090177	0.0691211	0.0768469	-0.0636359	-0.0818125	0.0758566	0.0826916	0.0594562	-0.0486775	0.0546393	0.0716317	0.49277	0.0859104	0.0698617	0.0679657	-0.0311663	-0.0524962	-0.0574793	0.0935979	0.0692951	-0.10953	-0.0984786	0.0923515	-0.0458299	0.0761567
复杂	0.158075	0.0325491	0.106592	-0.14902	-0.122304	-0.267556	-0.094051	0.109261	-0.0602431	-0.0127644	0.00339751	0.103425	-0.0911638	0.0548253	-0.19764	-0.132014	-0.00350685	-0.270074	-0.329453	0.149618	0.0173152	-0.161109	0.10233	-0.120199	0.121403	-0.0795758	-0.0340163	-0.0429025	0.113865	-0.198064	-0.355439	-0.023629	-0.0300541	0.051362	-0.0360812	-0.332228	0.087675	-0.0168973	-0.171654	-0.112721	-0.227005	0.128632	0.15592	-0.0970838	-0.0345799	0.0779404	-0.0206643	-0.0800946	0.0428145	-0.0394542
方式	-0.0186142	-0.0662917	-0.0710223	0.0363451	0.0768884	-0.311962	0.07095	-0.0523658	-0.149987	0.0877109	0.130066	-0.0766155	0.0558083	-0.0523777	0.185947	0.0620052	-0.0819459	-0.302622	0.0570452	-0.065955	0.109777	0.0303908	-0.0762129	0.0693364	-0.0573494	0.0939042	0.0581462	0.0684137	-0.0582521	-0.0822533	0.0852185	0.09046	0.0619297	-0.0464736	0.0597599	0.0650628	0.203647	0.0850267	0.0683507	0.0732249	-0.0361166	-0.0486051	-0.0598893	0.0936255	0.0617737	-0.120902	-0.108799	0.0947685	-0.0397364	0.0642414
要求	-0.0490517	0.229035	-0.0482732	0.0954433	0.0908177	-0.312508	0.0323477	-0.0353762	-0.0599037	-0.300837	0.184545	0.145044	0.0591495	0.0320209	0.208492	0.0340053	0.197548	-0.0632097	-0.230088	-0.131896	0.055057	-0.00708851	-0.091704	-0.000928902	-0.0385525	-0.162601	0.0097485	0.0359629	-0.0674104	-0.0641068	0.0946035	0.323434	-0.201636	0.0158063	-0.0133479	0.048022	0.257572	0.0267751	0.0254591	0.0205797	-0.378666	-0.0287721	0.0143824	0.111423	0.00952609	-0.127423	0.11731	0.102686	0.0394724	0.0972316
保守	0.173425	0.0602408	0.118569	-0.135819	-0.128395	-0.207671	-0.0889327	0.116438	-0.0608307	-0.00404752	0.0280305	0.111276	-0.101643	0.0599364	-0.027625	-0.139143	0.0173961	-0.0614582	-0.0397711	0.159946	0.0109859	-0.176427	0.11477	-0.187603	0.130787	-0.074187	-0.424295	-0.0405087	0.11494	0.111125	-0.0906275	-0.0218843	-0.0584024	0.065467	-0.0326334	-0.0504055	0.12056	-0.00832027	-0.0441807	-0.109125	-0.557427	0.13052	0.204776	-0.109981	-0.031844	0.14448	-0.0176332	-0.0801986	0.0356714	-0.0305269
潜力	-0.0108823	-0.0731063	-0.0680957	0.00674723	0.0678473	-0.0307616	0.0681335	-0.0515345	-0.156106	0.0850594	0.111189	-0.0765945	0.0609561	-0.0545102	0.14353	0.0602421	-0.0611169	-0.431417	0.0578023	-0.0494454	0.126079	0.0165103	-0.0604263	0.0632435	-0.0702704	0.0922107	0.0702991	0.068551	-0.0674348	-0.0812538	0.093684	0.0889533	0.0657085	-0.0456696	0.069343	0.0731662	0.200999	0.0870979	0.0629331	0.0711792	-0.0425593	-0.0512087	-0.0592483	0.0897896	0.0739645	-0.0979457	-0.109295	0.0896287	-0.0458463	0.0606701
迟滞	0.169586	0.0173226	0.174812	-0.269645	-0.114859	0.18435	-0.0904024	0.115568	-0.0712417	-0.338404	0.0460773	0.108066	-0.0988017	0.0494691	-0.0137932	-0.130445	-0.0185825	-0.365827	-0.302143	0.152399	0.0327752	-0.180292	0.0963974	-0.108399	0.116064	-0.0727288	-0.0244767	-0.259037	0.109354	0.102611	-0.0654483	-0.00886575	-0.0236978	0.048928	-0.0346769	-0.0434025	0.0339533	-0.00824289	-0.0414959	-0.112851	-0.336068	0.12026	0.124784	-0.0971335	-0.0235488	0.0712912	-0.0258135	-0.0922983	0.0338093	-0.0383207
密封性	-0.0174725	-0.0493655	-0.0619992	0.0309268	0.079357	-2.61543e-005	0.0693408	-0.0464648	-0.168393	0.0864015	0.113442	-0.0848906	0.0531682	-0.0460763	0.168881	0.0572604	-0.075216	-0.391981	0.0530439	-0.0626551	0.115685	0.00976091	-0.0810925	0.0752671	-0.0693148	0.361765	0.056663	0.0649636	-0.0661251	-0.0806082	0.115104	0.0876874	0.059595	-0.0375662	0.048872	0.0573709	0.212314	0.0839959	0.0676865	0.0681627	-0.0514787	-0.0540824	-0.0625901	0.100322	0.0626746	-0.112144	-0.104615	0.09703	-0.0375124	0.0595992
清晰	0.0816867	0.0985873	0.0672538	0.167974	-0.0565446	0.152794	-0.0698055	0.0913335	-0.037627	-0.0802814	-0.0386152	0.0428357	-0.0709711	0.105079	0.043377	-0.0692561	0.0849154	-0.305392	-0.1109	0.0813141	-0.06138	0.178511	0.0729234	-0.0570712	0.0630469	-0.0301383	-0.0945532	-0.0775152	0.074365	0.0330205	-0.0267658	-0.0871154	-0.0898811	0.128917	-0.1236	-0.090991	-0.175998	-0.0774432	-0.0952417	-0.0635447	0.145622	0.0823656	0.0680911	-0.0225825	-0.0939663	0.0122819	0.0394904	-0.0386393	0.139461	-0.627795
包裹	0.00275029	-0.497439	-0.0687711	0.0199602	0.0643969	-0.0479299	0.0721747	-0.050663	-0.163814	0.0855118	0.123346	-0.0790073	0.0657652	-0.045313	0.146868	0.0611411	-0.0775344	-0.205485	0.062422	-0.04352	0.104767	0.0282021	-0.0579458	0.0648922	-0.0594429	0.09088	0.0700743	0.0709141	-0.059517	-0.09144	0.0768468	0.0730748	0.0628854	-0.0417475	0.0595714	0.0711611	0.204735	0.07698	0.069182	0.0787614	-0.031299	-0.0538732	-0.0677916	0.0855046	0.0680447	-0.105806	-0.0928665	0.0909046	-0.0408869	0.0720937
威严	0.106446	0.112931	0.0852892	0.156156	-0.0507581	0.153773	-0.0643597	0.0885743	-0.0250239	-0.427923	-0.0476179	0.0511129	-0.0744203	0.114594	-0.360874	-0.0677087	0.0817697	-0.303187	-0.10283	0.0791523	-0.0491959	0.193776	0.0558871	-0.0424342	0.0645324	-0.0361855	-0.11215	-0.0858689	0.0711499	0.0339799	-0.0136921	-0.0899811	-0.0948195	0.137614	-0.111783	-0.0964798	0.149021	-0.0728048	-0.431199	-0.0579884	0.14191	0.085524	0.0553612	-0.0286576	-0.101267	0.00811352	0.0769072	-0.036394	0.132702	-0.108147
低调	-0.0068671	-0.0347473	-0.0615322	0.058216	0.0753171	-0.00331827	0.0729598	-0.0576904	-0.191564	0.0776171	0.10796	-0.0779141	0.06326	-0.0549805	0.120245	0.0633107	-0.0562506	-0.00234379	0.0548802	-0.0539879	0.0964074	0.01877	-0.0976669	0.0604698	-0.0644869	0.581828	0.0575965	0.0842473	-0.0622173	-0.0879224	0.0898232	0.0827023	0.0579989	-0.0479476	0.0534591	0.0740138	0.197375	0.0856665	0.0697468	0.0680951	-0.0970827	-0.0497996	-0.066402	0.0916985	0.0655002	-0.109438	-0.107028	0.0907486	-0.0346372	0.0539811
安心	-0.359933	0.122392	0.0644627	0.190158	-0.0452507	0.156276	-0.0711625	0.0930167	0.0109864	-0.0890211	-0.0536718	0.0471772	-0.0699439	0.112742	0.0312987	-0.0681922	0.451692	-0.186397	-0.104765	0.0708619	-0.051616	0.194146	0.477894	-0.0533338	0.0709436	-0.0465677	-0.10513	-0.0868498	0.0681573	0.0346003	-0.0108119	-0.0815635	-0.105448	0.125829	-0.108397	-0.100066	0.131859	-0.0963049	-0.105462	-0.0620356	0.122663	0.0949195	0.0666255	-0.0277562	-0.0987934	0.00993181	0.109252	-0.0335498	0.137243	-0.101354
透镜	-0.0208504	-0.0533305	-0.0663347	0.026374	0.0794445	0.0199648	0.0725125	-0.0480868	-0.126874	0.0776785	0.121915	-0.0703777	0.0575131	-0.0438188	0.148519	0.0630971	-0.080543	-0.283024	0.476602	-0.0554951	0.118039	0.04725	-0.0661662	0.0640778	-0.0620867	0.0873116	0.0602721	0.0770088	-0.0652031	-0.0856769	0.0789031	0.0931829	0.0572019	-0.0503124	0.0547189	0.0701073	0.0989346	0.0852573	0.0799884	0.0711127	-0.0719508	-0.0450242	-0.0666966	0.0972811	0.0654441	-0.123624	-0.0972439	0.0934895	-0.0365931	0.0441742
装备	0.035619	-0.0586124	0.0222767	-0.323542	0.35026	-0.0528927	0.0362593	-0.0342362	-0.0914006	-0.246028	0.132992	-0.0920758	0.0436897	-0.105909	-0.108452	0.0392406	-0.140279	-0.0805941	-0.168275	-0.0639305	0.116979	-0.278079	0.144342	0.0591675	-0.0710455	0.0251997	0.310981	-0.231785	0.145805	-0.0476	-0.143463	0.0685934	-0.01417	-0.0430704	0.0412162	-0.143832	-0.033832	0.192313	0.0724061	0.0591699	-0.0486568	-0.0419676	-0.0560793	0.299211	0.0561606	-0.0973786	0.0431238	-0.166389	0.142306	-0.173073
基础	-0.091618	-0.0628402	-0.132682	0.0740458	-0.134035	0.00957267	-0.0884848	0.00419482	0.0264803	-0.0505871	0.143361	-0.0863947	0.125992	0.0600021	-0.133112	0.033019	0.101011	-0.460356	0.0408459	-0.0768883	-0.134066	0.0967738	-0.0837449	0.0308436	-0.138757	-0.0996358	0.0860475	-0.257066	0.0945791	0.174554	0.389904	-0.114049	-0.0800532	-0.0543979	-0.112122	-0.0478332	0.244228	-0.0794318	0.0748771	-0.0262784	-0.0226683	-0.0531803	-0.142856	-0.112955	0.0632765	-0.279141	0.172843	-0.19333	0.0207406	-0.0498211
发达	0.107428	0.121671	0.0680933	0.176123	-0.0535055	0.136596	-0.0706728	0.0954009	0.00555841	-0.1034	-0.0557679	0.0471757	-0.0701881	0.108385	0.0368666	-0.0663909	0.131839	-0.493999	-0.112191	0.0548433	-0.0619402	0.192321	0.0529588	-0.0690838	0.0645263	-0.0551739	-0.0997094	-0.0978761	0.0779943	0.0531339	-0.00583311	-0.101908	-0.103952	0.121842	-0.115748	-0.0997617	0.176972	-0.417906	-0.0861994	-0.0639708	0.120966	0.0896454	0.0621617	-0.0282991	-0.101703	-0.00113833	0.359665	-0.044577	0.198293	-0.109629
异响	-0.00467749	-0.058286	-0.0698153	0.0232435	0.0769173	-0.0272848	0.0752245	-0.0601564	-0.12231	0.0978616	0.120891	-0.0763673	0.0655215	-0.0527059	0.170099	0.0541193	-0.451719	-0.0720081	0.070771	-0.0503335	0.0843496	0.00841803	-0.0859805	0.0639082	-0.0545927	0.108527	0.00463427	0.0582506	-0.0727733	-0.0844857	0.0976246	0.0839892	0.0708	-0.0335473	0.0702273	0.0738558	0.153453	0.0774767	0.0584996	0.0744344	-0.0212525	-0.0601187	-0.0641274	0.0947208	0.049083	-0.125184	-0.0975699	0.107437	-0.0492996	0.0740144
烦人	0.156231	0.0238699	0.108288	-0.134254	-0.116522	-0.300399	-0.094126	0.116886	-0.0670545	-0.000500008	0.0540734	0.110831	-0.487511	0.0490215	-0.381448	-0.128363	-0.00727498	0.0500019	-0.0419864	0.157887	0.0248294	-0.154748	0.0930634	-0.111009	0.125436	-0.0910465	-0.0351708	-0.045324	0.124432	0.104649	-0.0786838	-0.0150783	-0.0294633	0.0617327	-0.0358916	-0.0474786	0.103102	-0.00127898	-0.389636	-0.108591	0.0916819	0.12406	0.131678	-0.104778	-0.0334197	0.0576898	-0.0390892	-0.0845855	0.0315392	-0.038344
空间	-0.0120176	-0.0390187	-0.0656423	-0.421037	0.0712908	0.0733864	0.0745793	-0.0497192	0.304214	0.0863716	0.117312	-0.0718368	0.0592764	-0.048415	0.137941	0.0609404	0.0168148	0.0392126	0.0656436	-0.0526112	0.0996583	0.0501	-0.0519296	0.0735408	-0.0620741	0.0813633	0.0602771	0.0709324	-0.0638388	-0.0889087	0.0775135	0.0851133	0.0681744	-0.0456083	0.0567596	0.0583674	0.125344	0.0823585	0.0632498	0.072366	-0.0503315	-0.0471927	-0.0577636	0.0776254	0.0613062	0.0287629	-0.091538	0.0886721	-0.0431216	0.0601232
充分	0.117945	0.101642	0.0593252	0.18423	-0.0404472	0.136319	-0.0717632	0.0892184	-0.0360116	-0.0847487	-0.0394237	0.0449909	-0.0701972	0.132843	0.0454753	-0.0758802	0.107033	-0.207623	-0.0970158	0.554361	-0.0451373	0.524498	0.05071	-0.04829	0.072318	-0.0392736	-0.109418	-0.0839217	0.0656975	0.0316599	-0.0280908	-0.0855677	-0.110032	0.13441	-0.108397	-0.0968599	-0.0126713	-0.082124	-0.0880305	-0.0510677	0.154586	0.0856179	0.0545976	-0.0222579	-0.105155	0.0608789	0.111097	-0.0248786	0.13021	-0.0944756
性能	-0.0140593	-0.0736164	-0.0647624	0.0232262	0.078757	-0.00371952	0.0703521	-0.046212	-0.159239	0.0825729	0.104504	-0.0844291	0.0702992	-0.0511491	0.162783	0.0560394	-0.00480083	0.00291468	0.0637966	-0.0577903	0.106634	0.0465285	-0.0703045	0.0709337	-0.0606806	0.103791	0.0746382	0.0719353	-0.064572	-0.0807601	0.0820353	0.0834943	0.0709517	-0.0489737	0.0660846	0.0662938	0.00202316	0.0833662	0.0682654	0.0729129	-0.0174598	-0.0591321	-0.052004	0.0827163	0.0686628	0.346158	-0.0956787	0.0962889	-0.0486286	0.0713925
品牌	0.0216384	-0.0683778	-0.0427795	-0.0136321	0.0794884	-0.0846519	-0.0820234	0.00804925	-0.136264	0.0993734	0.14554	-0.0601258	-0.00270958	-0.0210746	0.371717	-0.119891	-0.122683	0.0357742	0.060357	0.0183193	0.120615	-0.271359	-0.0702501	0.072242	0.143357	-0.300205	0.0393433	-0.263333	-0.0485188	0.0520592	0.289707	0.12208	-0.0193461	-0.000904265	0.0592999	-0.203256	-0.242456	0.0421409	0.0628176	0.0657788	0.0632051	-0.0304892	-0.0491126	-0.160924	0.0309366	-0.131763	0.143647	0.0961966	-0.3563	0.0462456
良好	0.0996822	0.0990778	0.0585791	0.17168	-0.0447385	0.156195	-0.0711833	0.0895932	-0.00182541	-0.0833554	-0.0376654	0.0437267	-0.0714104	0.12599	0.0696395	-0.0638574	0.0928641	-0.629223	-0.107591	0.0675652	-0.0605433	0.186498	0.0496489	-0.059338	0.0691238	-0.0326712	-0.080164	-0.450949	0.0770974	0.0341078	-0.0267832	-0.0755842	-0.107528	0.117594	-0.111425	-0.0996634	0.175678	-0.085661	-0.0906265	-0.0497575	0.138598	0.087106	0.0435236	-0.0392245	-0.0893688	0.00525743	0.0636486	-0.0229017	0.122169	-0.0988305
储物	-0.0163248	-0.0652287	-0.0590068	0.0278586	0.0823365	-0.00787297	0.0738078	-0.0455122	-0.449693	0.090514	0.124513	-0.0708394	0.0567207	-0.0540065	0.156749	0.0524784	-0.0723923	-0.161053	0.0570488	-0.0582332	0.125561	0.0281674	-0.0755631	0.064363	-0.0585557	0.087952	0.0597656	0.0711335	-0.0632094	-0.0801788	0.105665	0.0865362	0.066925	-0.0458627	0.0563706	0.0681622	0.207331	0.0963746	0.0872452	0.0651973	-0.0417478	-0.0451753	-0.0623093	0.0957054	0.0723739	-0.110328	-0.108946	0.0923534	-0.0512582	0.0618579
不够	0.160169	0.0160877	0.108337	-0.164171	-0.112424	-0.242804	-0.086635	0.112975	-0.0795408	-0.000242659	0.0595602	0.109904	-0.0880456	0.0501748	0.0106608	-0.130779	0.00780345	0.0185325	-0.0425915	0.151558	0.0161218	-0.167304	0.104034	-0.11123	0.11539	-0.0687026	-0.0272729	-0.0515948	0.11067	0.0955739	-0.0931365	-0.00938766	-0.0382536	0.0430122	-0.030572	-0.0483219	-0.453602	-0.0146857	-0.0346889	-0.11203	-0.21217	0.121107	0.129027	-0.540052	-0.0355658	0.0549938	-0.0388934	-0.0737714	0.0306841	-0.0343725
还行	-0.182371	-0.0591785	-0.0268045	-0.158122	0.0470386	-0.12363	-0.116928	-0.0384308	0.00871733	-0.0388917	0.33965	-0.0111763	-0.132485	0.0238338	0.286393	-0.0849948	-0.27125	0.210714	-0.132125	-0.295561	-0.0159518	-0.180335	-0.196098	-0.0769108	-0.0999408	-0.139725	-0.0576116	-0.112454	-0.0889267	0.0631385	-0.138103	0.116521	-0.137916	0.0656592	-0.145009	-0.122961	0.187283	0.142387	-0.0661057	0.0228892	0.0740983	-0.0261446	0.0328661	0.27545	-0.166865	-0.0719235	-0.00358625	-0.110499	0.0713129	-0.144647
水平	-0.0126393	-0.0536098	-0.0830274	0.0384295	0.0893287	-0.0630032	0.0685187	-0.051146	-0.157297	0.0928148	0.156496	-0.0871571	0.0544709	-0.0532472	0.166999	0.0575093	-0.0961337	-0.0509792	0.065665	-0.0542737	0.112764	0.0193584	-0.0724882	0.0682622	-0.0710111	0.0884752	0.0669855	0.0790709	-0.0643631	-0.0887119	0.110998	0.0918984	0.0660651	-0.0553536	0.0553934	0.0692355	0.209718	0.105083	0.0767832	0.0726556	-0.0502558	-0.0512405	-0.0618258	0.105352	0.0671978	-0.127767	-0.107117	0.093906	-0.0487723	0.0684383
不快	0.161193	0.292443	0.111242	0.189921	-0.115604	-0.287303	-0.0904488	0.115625	-0.0617723	-0.00289612	0.0613628	0.432212	-0.0989717	0.090472	0.00692872	-0.133182	-0.0159583	0.0879925	-0.0396669	0.171527	0.0341059	-0.140932	0.0987572	-0.116159	0.128904	-0.0816669	-0.036334	-0.0433657	0.11563	0.105225	-0.0749026	-0.0193139	-0.0293147	0.0995652	-0.0397941	-0.046374	0.105172	-0.00418778	-0.243136	-0.116249	-0.420555	0.125343	0.116879	-0.0941371	-0.0199714	0.0435063	-0.00834036	-0.0830863	0.0698583	-0.0531889
视野	-0.00987272	-0.0606278	-0.0616151	0.00265548	0.0725885	-0.00374422	0.0639216	-0.0468088	0.297311	0.0889081	0.131292	-0.0785602	0.0587864	-0.0545883	0.162238	0.0468766	-0.0431364	-0.117951	0.0552957	-0.049895	0.120134	0.0741308	-0.0599339	0.060175	-0.0564929	0.0797412	0.42935	0.0678485	-0.0595892	-0.0761198	0.0921791	0.0870308	0.045609	-0.0447914	0.0512176	0.0604805	0.234394	0.088113	0.0621086	0.0696448	-0.0216523	-0.0506765	-0.061457	0.0833857	0.0583165	-0.110794	-0.108324	0.085107	-0.0488611	0.0597952
出色	0.0971495	0.110483	0.0639469	0.172883	-0.0468766	0.162575	-0.065206	0.094225	-0.024646	-0.0830249	-0.0378167	0.0556223	-0.0786391	0.115744	0.0703055	-0.0598961	0.092394	-0.0657065	-0.100925	0.0642358	-0.0612545	0.202262	0.0544402	-0.0467181	0.0697802	-0.0396262	-0.106448	-0.0858366	0.389602	0.0368379	-0.00993474	-0.0715053	-0.0981342	0.126119	-0.104685	-0.099709	-0.224332	-0.0832723	-0.095835	-0.0567778	0.121701	0.604809	0.0584891	-0.0300722	-0.0902332	0.0169113	0.0616781	-0.0296988	0.13238	-0.0939186
硬度	-0.00875172	-0.057523	-0.0734975	0.0197221	0.0741042	-0.0420834	0.0779497	-0.0495923	-0.159307	0.0910539	0.123481	-0.0733956	0.0703217	-0.058156	0.154113	0.0599071	-0.0586413	-0.146057	0.0742432	-0.0395032	0.120081	0.0233569	-0.0603847	0.0676937	-0.0600741	0.0923817	0.0644677	0.0789866	-0.0639253	-0.0887003	0.0985084	0.0989336	0.0721272	-0.0494278	0.0611887	0.0793905	0.20233	0.0825683	0.064828	0.0712029	-0.049186	-0.0498594	-0.0753765	0.0940128	0.0733866	-0.145761	-0.0983159	0.096178	-0.0437442	0.0761397
合适	0.0879095	0.0947864	0.0591544	0.167552	-0.0458071	0.133034	-0.0621087	0.0915791	0.397048	-0.0810145	-0.0212095	0.0522617	-0.0778801	0.119442	0.0519757	-0.0609995	0.0846302	-0.171436	-0.100255	0.051539	-0.0396721	0.456353	0.0297225	-0.0436736	0.0766343	-0.044471	-0.10222	-0.0865178	0.0673834	0.02978	0.000654298	-0.0829089	-0.0989398	0.119671	-0.10578	-0.0937879	-0.498799	-0.0874198	-0.0850974	-0.0501746	0.146799	0.0931958	0.0599591	-0.019878	-0.0880198	0.00774825	0.0680873	-0.0223678	0.12309	-0.0941403
保有量	-0.00303088	-0.0440709	-0.066258	0.0121661	0.0797441	-0.0216573	0.0746458	-0.0509662	-0.153127	0.0905819	0.134165	-0.0790266	0.058752	-0.0465028	0.185607	0.0592285	-0.0887175	-0.295785	0.0604197	-0.052804	0.108967	0.0591702	-0.0718801	0.0718952	-0.0627911	0.0955996	0.0580731	0.0783888	-0.0614588	-0.0866176	0.100645	0.0886227	0.0561298	-0.0492006	0.0581077	0.0642207	0.222995	0.0884186	0.0667638	0.0733446	-0.0462313	-0.048161	-0.0665166	0.0986144	0.0699204	-0.11944	-0.0996976	0.0967238	-0.0404125	0.0506346
充足	0.073738	0.0973968	0.355852	-0.156649	-0.0532261	0.197226	-0.065579	0.0929678	-0.0225358	-0.086772	-0.0266569	0.366665	-0.0818108	0.107415	0.0654113	-0.0618368	0.0832681	-0.00611083	-0.104109	0.063613	-0.0569941	0.269011	0.0548058	-0.0407499	0.0655633	-0.040558	-0.100321	-0.0794608	0.0729098	0.0342213	0.0239729	-0.0851261	-0.0990276	0.126553	-0.0977595	-0.0876629	0.145705	-0.0761844	-0.0977067	-0.0583291	0.135121	0.085037	0.0610431	-0.0309032	-0.10033	0.0157766	-0.520792	-0.0347776	0.130595	-0.104246
平均	-0.194628	-0.0793501	0.0286908	-0.118248	0.0445746	-0.129427	-0.127935	-0.061659	0.201637	-0.039052	0.285713	-0.0834292	-0.122576	-0.117785	0.256058	-0.0910061	-0.281473	0.138219	-0.133477	-0.302146	0.163837	-0.223013	-0.103294	-0.0742811	0.0242931	-0.127047	-0.0487777	-0.111791	-0.157289	0.0670683	-0.132396	0.0430073	-0.133465	0.0690545	-0.146806	-0.118299	0.272072	0.0235208	-0.0467275	-0.0137061	0.0479998	0.0324541	-0.103688	0.278002	-0.135935	-0.0683424	-0.0102234	-0.105797	0.0779424	-0.145497
表面	-0.0123843	-0.0658901	-0.0702858	0.0111425	0.0775054	-0.0237276	0.0736333	-0.0509992	-0.156926	0.089007	0.12595	-0.0783884	0.0619473	-0.0554815	0.162814	0.060037	-0.108185	-0.106867	0.0630256	-0.05116	0.113659	0.038398	-0.0694804	0.0750179	-0.0633786	0.0907282	0.0637355	0.0760225	-0.0644185	-0.0837626	0.0938481	0.0929035	0.0616428	-0.0549481	0.0647627	0.0678456	0.201486	0.0846345	0.0675098	0.0757429	-0.0957952	-0.0492163	-0.0657079	0.105483	0.433038	-0.120124	-0.0978105	0.0949161	-0.0432631	0.0637788
惊喜	0.0949597	0.10361	0.0624301	0.16666	-0.0473361	0.139411	-0.0646421	0.0866781	0.312283	-0.0785882	-0.0575351	0.0476491	-0.0698672	0.110507	0.0344874	-0.0604987	0.111696	-0.102117	-0.101311	0.0681527	-0.0644937	0.207982	0.0568267	-0.0501458	0.0660045	-0.0337288	-0.0997567	-0.0861519	0.0612382	0.033536	-0.00652346	-0.0848932	-0.0954443	0.115264	-0.105754	-0.0892525	0.13086	-0.0821652	-0.0913043	-0.0548473	0.222771	0.0899619	0.660555	-0.0231351	-0.0878467	0.0266054	0.0679194	-0.0259519	0.130918	-0.0989183
姿态	-0.0232608	-0.0735468	-0.066697	0.045055	0.0671699	0.000105193	0.0746857	-0.0400239	-0.14177	0.0946494	0.129952	-0.0741242	0.0589078	-0.0458971	0.154709	0.0542203	-0.0749325	-0.250356	0.061774	-0.0530423	0.136712	0.0535846	-0.0651836	0.0675373	-0.0545949	0.0848554	0.0652328	0.0729761	-0.0672547	-0.0795459	0.115093	0.0894602	0.0664868	-0.0493185	0.0532665	0.0666816	0.492736	0.0931677	0.0736668	0.0600934	-0.0217533	-0.0440149	-0.0599747	0.0899438	0.0676827	-0.122568	-0.113674	0.393914	-0.0446133	0.0653552
一致	0.0822711	0.0986044	0.0682452	0.159112	-0.0462599	0.12472	-0.0685589	0.0978354	-0.0148419	-0.0855249	-0.052266	0.0602467	-0.0755231	0.104418	-0.345779	-0.0486429	0.0760928	-0.285401	-0.103191	0.0406439	-0.0435709	0.216218	0.0356027	-0.0414621	0.0705113	-0.0367272	-0.0993114	-0.0921505	0.0671702	0.0361652	0.00223213	-0.0799222	-0.0919682	0.116633	-0.100296	-0.0858653	0.177772	-0.0841379	-0.442962	-0.0554252	0.492028	0.109994	0.0719375	-0.0136363	-0.0873433	-0.00234314	0.0478256	-0.0340383	0.127682	-0.100423
车型	-0.00523541	-0.0506243	-0.0756262	0.0302258	0.0587555	0.00864581	0.0707014	-0.0473086	-0.143466	0.0904197	0.0887078	-0.0813234	0.0618234	-0.0505927	0.164112	0.0572071	-0.0527955	0.0459631	0.0612568	-0.0522125	0.0930723	-0.242228	-0.415716	0.058118	-0.0597637	0.0781273	0.05639	0.0659449	-0.0761549	-0.0861976	0.0812469	0.0901665	0.0650374	-0.0417782	0.0586496	0.0608818	-0.220208	0.0783889	0.0612495	0.0748224	-0.0329516	-0.0495412	-0.0539218	0.0734672	0.060826	-0.130741	-0.0872967	0.0872228	-0.0422681	0.0631629
新	0.104721	0.115086	0.0668546	0.171373	0.243598	0.202789	-0.069946	0.0992186	0.193851	-0.0852553	-0.0598855	0.0568281	-0.082342	0.118511	0.0737831	-0.0646068	0.0273131	0.0325441	-0.105309	0.136916	-0.0709335	-0.133379	0.0619952	-0.0677111	0.0848019	-0.0430239	-0.0938346	-0.101368	0.0791166	0.0372769	-0.0177395	-0.0816726	-0.102042	0.127762	-0.105084	-0.358695	-0.288492	-0.102229	-0.0936631	-0.0604402	0.530483	0.0938855	0.0564196	-0.0380044	-0.0869187	0.00472272	0.0846689	-0.0309004	0.138053	-0.104587
不同	-0.12653	0.119404	0.042862	0.276795	0.0204953	-0.157076	-0.0597714	0.084259	0.17536	-0.0790657	-0.0217574	0.0593756	-0.0758659	0.13798	0.371001	0.091595	0.181606	0.0393369	-0.102843	-0.0358683	-0.0863761	-0.117716	-0.321135	-0.054559	-0.228596	0.116417	-0.113273	-0.091264	0.0568639	0.0336742	-0.000434787	0.0880979	0.34346	0.119594	-0.0946634	-0.115886	0.319317	-0.116941	-0.0977581	-0.0675415	0.0391954	0.0989744	0.072218	-0.016556	-0.117534	-0.0741066	-0.100037	-0.0152549	-0.172805	-0.100656
费油	-0.0180808	-0.0898151	-0.0744682	0.0182911	0.0910461	-0.0780859	0.076598	-0.0506424	-0.182948	0.0916199	0.112758	-0.0834397	0.0648267	-0.0522068	0.164536	0.0711521	-0.0751742	-0.220379	0.0630545	-0.0692472	0.117892	0.0228775	-0.0701738	0.0766515	-0.0615876	0.0947321	0.0626965	0.0784498	-0.0689494	-0.0891568	0.102381	0.0906404	0.0708297	-0.0509369	0.0606188	0.0724043	0.232414	0.091777	0.0716504	0.0765352	-0.0523651	-0.0529187	-0.0647949	0.0960742	0.073863	-0.14915	-0.117582	0.10937	-0.0461028	0.0682711
逊色	0.169191	0.0316271	0.10868	-0.126327	-0.126223	-0.448658	-0.0910792	0.121134	0.389365	-0.00407887	-0.237602	0.117739	-0.098398	0.0550953	-0.016438	-0.118991	0.00449223	-0.240401	-0.038932	0.153607	0.0264228	-0.134674	0.101951	-0.114346	0.123777	-0.0777562	-0.0339218	-0.0436988	0.10991	0.100833	-0.0791686	-0.0137485	-0.0242007	0.0487703	-0.0423841	-0.283871	-0.15112	-0.00130788	-0.0411231	-0.110037	-0.223079	0.12578	0.126075	-0.0907271	-0.0304153	0.0611255	-0.02716	-0.0767636	0.0434689	-0.0307786
脚感	-0.0184983	-0.0725261	-0.0621859	0.0138894	0.0677697	-0.00171357	0.0662198	-0.0490892	-0.155459	0.0897561	0.116291	-0.0688932	0.0588592	-0.0560434	0.152988	0.0614193	-0.0723883	-0.589995	0.0694008	-0.0517785	0.12165	0.0260522	-0.0630103	0.0621374	-0.0646641	0.096574	0.0641726	0.075778	-0.0646149	-0.0823178	0.0912237	0.0873558	0.0661659	-0.0516033	0.0587973	0.0705023	0.181251	0.0848152	0.0862731	0.0666536	-0.0561206	-0.0482119	-0.0564028	0.088517	0.0704614	-0.108526	-0.100761	0.0884725	-0.0410388	0.0639915
不错	0.0857919	0.0995675	0.0615336	0.184889	-0.0413398	0.140292	-0.0663484	0.0947539	-0.0196703	-0.0795603	-0.0185093	0.0566704	-0.0745672	0.109003	0.0691045	-0.0587132	0.0605082	-0.0348305	-0.0989588	0.0468804	-0.0439284	0.184477	0.0399754	-0.04382	0.0764716	-0.0411547	-0.100433	-0.0861551	0.0647037	0.0342003	0.007554	-0.0664242	-0.103272	0.119233	-0.0981115	-0.0889502	0.146428	-0.0740124	-0.0804386	-0.057585	0.12327	0.0846508	0.0534626	-0.0302692	-0.0831346	-0.00341667	0.0569791	-0.0297994	0.133866	-0.0911376
距离	-0.0270962	-0.0516788	-0.063636	-0.00157447	0.0784668	-0.022516	0.0672894	-0.0489288	0.298196	0.0865753	0.168129	-0.077479	0.055455	-0.037347	0.156994	0.0548319	-0.0785175	0.00900121	0.0577445	-0.0714468	0.107934	0.0566963	-0.0756314	0.0771505	-0.053015	0.0826352	0.0504235	0.0665869	-0.0564947	-0.0851061	0.0787625	0.0851175	0.0634235	-0.041227	0.0545602	0.0663609	0.0708753	0.0781993	0.0637538	0.0761955	-0.0634014	-0.0458538	-0.0657099	0.100659	0.0565734	-0.121756	-0.0885479	0.0940977	-0.0413584	0.057459
行	0.0973296	0.0949025	0.062452	0.17364	-0.0184318	0.147005	-0.0690369	0.100388	0.0300128	-0.0927596	-0.0297159	0.0423587	-0.082481	0.0992653	0.068412	-0.0760169	0.0658202	-0.0541977	-0.102677	0.0509585	-0.0513237	0.161238	0.0421001	-0.0375958	0.0800678	-0.0473587	-0.10473	-0.0949982	0.0701385	0.0514415	-0.01617	-0.0883394	-0.112038	0.125218	-0.110132	-0.0973731	-0.788703	-0.0874234	-0.0824006	-0.0636345	0.122272	0.10452	0.0599015	-0.0164838	-0.0855106	-0.0121294	0.101113	-0.0352883	0.140692	-0.0941697
杯架	-0.0108664	-0.057458	-0.0639572	-0.0266974	0.077596	-0.0230085	0.0778222	-0.0541929	-0.141194	0.0933164	0.127788	-0.083492	0.063973	-0.0538487	0.151412	0.0658002	-0.0858202	-0.220851	0.0728574	-0.0533802	0.133356	0.0247415	-0.0678308	0.0692718	-0.0663448	0.093603	0.0771948	0.0865366	-0.0641587	-0.098671	0.108256	0.088551	0.0621435	-0.0534215	0.0586394	0.060621	0.231268	0.0898202	0.0838516	0.0782	-0.0428754	-0.0556133	-0.076261	0.0994654	0.084999	-0.121511	-0.117282	0.137902	-0.0508534	0.0706126
紧急	0.170225	0.0148783	0.11766	-0.164835	-0.119818	-0.304301	-0.0840219	0.106465	-0.0633869	-0.00726794	-0.334949	0.11702	-0.101128	0.0545921	-0.00226802	-0.12875	-0.00165431	0.427903	-0.0475454	0.167532	0.033722	0.188058	0.113395	-0.108463	0.119168	-0.0715958	-0.0317416	-0.0459846	0.10663	0.0951614	-0.100236	-0.0102678	-0.0291469	0.0578805	-0.0329159	-0.0433041	0.111869	-0.00168082	-0.0476309	-0.108124	-0.26756	0.395377	0.129176	-0.0913085	-0.0346841	0.062739	-0.0429285	-0.0720311	0.0610055	-0.0364563
推背感	-0.037622	-0.0740648	-0.0786446	-0.0443767	0.0786388	0.00698679	0.0792723	-0.0549062	-0.145565	0.0943483	0.112428	-0.0902215	0.0659157	-0.0456792	0.483094	0.0655365	-0.0541179	-0.304035	0.0675796	-0.0497369	0.121683	0.0712382	-0.0513744	0.0707028	-0.0698607	0.10364	0.0732143	0.0745351	-0.0657909	-0.0776362	0.0826285	0.0854235	0.0675255	-0.0494592	0.0706462	0.0693816	0.236061	0.0809933	0.0694466	0.0740502	-0.032458	-0.0538976	-0.0508356	0.0976997	0.0661037	-0.113561	-0.100453	0.0994962	-0.0441175	0.0606106
同等	-0.195884	0.0520778	0.0580488	-0.166058	0.00872464	-0.1621	-0.114243	0.0838251	0.264966	-0.0492083	0.335667	0.0186332	-0.107601	0.0449713	0.288239	-0.0831697	-0.26426	0.0498271	-0.132271	-0.334067	-0.0400411	-0.156396	0.0180487	-0.0810914	0.0341533	-0.12344	-0.0699136	-0.104638	0.057745	0.0634102	-0.104226	0.0170291	-0.120743	0.0649471	-0.133891	-0.116026	0.0427948	-0.014223	-0.0844744	-0.0340931	0.12311	0.0524942	0.0755711	0.306905	-0.132779	0.271803	0.00428484	-0.105941	0.0949349	-0.130672
轴距	-0.0162021	-0.0511674	-0.0678276	0.0185235	0.0630486	-0.0158807	0.0660319	-0.050618	-0.126023	0.0866581	0.453984	-0.0701531	0.0593347	-0.0409625	0.14365	0.059509	-0.0620746	-0.135766	0.0628101	-0.0554746	0.109324	0.05703	-0.0773902	0.0768535	-0.0564238	0.0781496	0.0653315	0.0727941	-0.0593605	-0.0862203	0.0795673	0.0922745	0.0657878	-0.0396797	0.0666206	0.0621944	-0.113985	0.0821766	0.0698005	0.0714659	-0.0406641	-0.0522436	-0.062489	0.0961494	0.0583646	-0.106713	-0.10979	0.0864412	-0.0514615	0.0637026
出名	0.0965681	0.104665	0.0632229	0.16461	-0.0508754	0.170947	-0.0732648	0.0890593	-0.0374741	-0.0870449	-0.0260492	0.377579	-0.0773291	0.118277	0.0653946	-0.0672861	0.0865198	0.0540493	-0.0980495	0.0836078	-0.0506691	0.210128	0.0520692	-0.0405122	0.0763219	-0.0550446	-0.107301	-0.446566	0.0735764	0.415184	0.293764	-0.07848	-0.10592	0.120939	-0.100064	-0.088858	0.137937	-0.0881365	-0.094705	-0.0624149	0.11536	0.0864035	0.0631286	-0.0282339	-0.103226	0.00107946	0.0584008	-0.0303396	0.137957	-0.106803
氛围	-0.0191604	-0.0675376	-0.124317	0.0276547	0.071186	0.00588824	0.0705396	-0.0555842	-0.162603	0.0953938	0.119861	-0.0839713	0.0678877	-0.0584041	0.147792	0.0589345	-0.0851303	-0.4036	0.0623684	-0.0575334	0.123913	0.0394644	-0.0645166	0.0744628	-0.0670532	0.0890228	0.0647323	0.0746104	-0.0719925	-0.0890072	0.381705	0.0918038	0.0540508	-0.0593594	0.058996	0.0689033	0.21917	0.0889951	0.0871024	0.0790343	-0.0275823	-0.0656774	-0.0789541	0.107255	0.0646999	-0.133469	-0.0996919	0.100426	-0.0451968	0.0648346
舒服	0.135992	0.0993032	0.0703659	0.151997	-0.0532825	0.171598	-0.078545	0.101004	-0.041234	-0.0782944	-0.0366832	0.0529538	-0.0775671	0.104704	0.059958	-0.0715816	0.0756381	0.125805	-0.103147	0.0564459	-0.0514703	0.182848	0.0528829	-0.0441105	0.0817798	-0.0371982	-0.106306	-0.0909162	0.0746858	0.041996	-0.0158845	-0.0722744	-0.107965	0.138147	-0.10605	-0.0958584	-0.751574	-0.0861239	-0.0911076	-0.0607721	0.123545	0.0970255	0.0486453	-0.0220295	-0.0992014	-0.0127514	0.0751175	-0.0282787	0.13159	-0.0998893
寿命	-0.010357	-0.0583967	-0.0602851	-0.0998355	0.0584311	-0.0136972	0.0766068	-0.0607792	-0.142923	0.0906059	0.37023	-0.0765911	0.0547174	-0.0437366	0.149392	0.0544398	-0.0806648	-0.28732	0.325316	-0.0448501	0.115939	0.0135785	-0.080722	0.0692492	-0.0883161	0.0999149	0.250189	0.078806	-0.0663334	-0.0806879	0.0816816	0.105325	0.0667676	-0.0434311	0.0581934	0.0710977	0.203172	0.0843328	0.075053	0.0703672	-0.296884	-0.0441903	-0.0636418	0.10461	0.0619296	-0.110636	-0.232107	0.0940925	-0.0477583	0.0694764
低沉	0.166014	0.0168037	0.411146	-0.149888	-0.122163	-0.408889	-0.0886763	0.113879	-0.0603481	0.000216254	-0.319111	0.106552	-0.0955991	0.0907337	0.00973948	-0.122908	0.0306349	-0.157031	-0.0449788	0.15371	0.021856	-0.138524	0.0944051	-0.112797	0.122998	-0.0773506	-0.0357937	-0.0435035	0.115795	0.100751	-0.0723189	-0.0157212	-0.0285116	0.0511034	-0.0338121	-0.0450727	0.0994292	-0.00885015	-0.041969	-0.110652	-0.215502	0.128075	0.126173	-0.0885195	-0.0314739	0.303725	0.200245	-0.0771129	0.0368007	-0.038294
速度	-0.0027124	-0.0636552	-0.0704078	0.0288783	0.0764838	-0.00864632	0.0745329	-0.0490484	-0.1349	0.0909668	0.123695	-0.0829348	0.062025	-0.0620588	0.143296	0.0523858	-0.083185	0.332349	0.0663591	-0.0486987	0.122118	0.032049	-0.0739647	0.0681497	-0.0598353	0.0888384	0.0618093	0.079877	-0.0566559	-0.0865712	-0.22838	0.087334	0.0575878	-0.0588416	0.0625462	0.0656033	0.182239	0.101349	0.0745031	0.0743849	-0.0449099	-0.0530151	-0.0589463	0.0989269	0.066179	-0.104594	-0.104872	0.0992228	-0.0458164	0.0628022
高级	0.0882968	0.131504	0.0584763	0.211476	-0.0439604	0.144466	-0.0653904	0.0962058	-0.00367261	-0.0872973	-0.0353921	0.0489456	-0.0870495	0.121882	0.0648492	-0.0580134	0.0845298	0.10881	-0.0986485	0.0511008	-0.0372731	0.208342	0.0972031	-0.761747	0.0747457	-0.0342263	-0.0979243	-0.078188	0.060707	0.0294751	-0.0196005	-0.0665869	-0.100325	0.122919	-0.108445	-0.0928922	-0.0227102	-0.0732347	-0.0782815	-0.0556263	0.0877452	0.116658	0.0310174	-0.0232041	-0.0826425	-0.0060414	0.0570475	-0.101966	0.135827	-0.0983975
颜色	-0.00584399	-0.0545445	-0.0623187	0.140653	0.662625	0.0497008	0.0721211	-0.0448434	-0.0720262	0.0883236	0.110217	-0.0790017	0.0582075	-0.0483887	-0.176483	0.0587825	-0.0799269	-0.0357577	0.060416	-0.0587486	0.0914833	0.0170447	-0.073215	0.0546123	-0.0603877	0.090592	0.057241	0.0701434	-0.0652418	-0.0806623	0.0957297	0.0686308	0.062619	-0.0435362	0.0565652	0.0648872	-0.0594707	0.0647392	0.0666982	0.0652927	-0.299338	-0.0424598	-0.0575735	0.100277	0.0572756	-0.103247	-0.100924	0.0857283	-0.0404261	0.0656208
外观	-0.26855	-0.0579224	-0.0682756	0.119636	0.055504	0.0555211	0.0667229	-0.0415875	-0.0719552	0.0838326	-0.105577	-0.0688739	-0.0499184	-0.0649312	-0.187299	0.452129	-0.082887	0.0218812	0.0579612	-0.069149	-0.0987878	-0.214051	-0.43935	0.420455	-0.0492678	0.0785313	0.0617571	0.053221	-0.0506708	-0.0691339	0.0677825	0.099509	0.0603787	-0.0409529	0.0558182	-0.0190608	-0.223265	0.0681217	0.0659558	0.0629228	-0.12971	-0.039235	-0.0525889	0.0834886	0.0626853	-0.0849487	-0.0660755	0.0868689	-0.0496178	0.0621455
容易	0.0890068	0.12168	0.0812181	0.185531	-0.0428756	0.200009	-0.0700483	0.107592	0.00316436	-0.0797306	-0.0299537	0.043663	-0.0745939	0.115264	0.0520965	-0.0704843	0.0506644	0.69191	-0.121176	0.0663227	-0.0502494	0.204009	0.0564531	-0.0531043	0.0701947	-0.030795	-0.124544	-0.10079	0.074198	0.0377772	0.014879	-0.0815096	-0.102996	0.124323	-0.126572	-0.100057	0.139989	-0.122443	-0.0688306	-0.0694332	0.138884	0.0847085	0.0393987	-0.0130036	-0.0877038	-0.0045762	0.0848138	-0.0352751	0.131336	-0.122756
后排	-0.00926226	-0.0436113	-0.061723	-0.41681	0.0636105	-0.0410884	0.0763906	-0.0497593	0.0390285	0.0961482	0.128522	-0.0695048	0.0547259	-0.0532531	0.122649	0.0543073	-0.0559685	0.247295	0.0629669	-0.0251371	0.10684	0.0146607	-0.0660535	0.0543002	-0.0583288	0.0764738	0.0753992	0.0815727	-0.0632488	-0.0812276	0.0865289	0.0934975	0.0627708	-0.0452442	0.0622635	0.0717356	0.0607999	0.0814478	0.0700736	0.0630733	-0.0679917	-0.0392013	-0.0518697	0.0928646	0.0758319	-0.104965	-0.0850113	0.100095	-0.0431228	0.068188
紧凑	0.0935373	0.126458	0.072049	0.19106	-0.0774045	0.145416	-0.0722157	0.103221	0.435243	-0.0827655	-0.023142	0.0563701	-0.0819413	0.116446	0.0339953	-0.0571071	0.109075	0.0889702	-0.104166	-0.184086	-0.460266	0.293028	0.0527522	-0.0529436	0.0726007	-0.0369984	-0.118663	-0.0897734	0.0814899	0.0386928	-0.0195961	-0.0942127	-0.0909936	0.138681	-0.109643	-0.0953784	-0.278888	-0.105445	-0.100637	-0.0635355	0.118468	0.0922683	0.0597363	-0.0180159	-0.100166	0.0149052	0.0731429	-0.0364275	0.13825	-0.102375
微弱	0.207641	0.0148545	0.112935	-0.153163	-0.358293	-0.254944	0.0556033	-0.057548	-0.0676649	0.0572545	0.0995837	0.121375	0.113377	-0.243862	0.0136957	-0.137071	-0.0239962	-0.391803	0.00993469	0.169557	0.151874	-0.22648	0.0919837	-0.10717	0.117638	-0.076508	0.268158	0.0848953	0.121043	-0.0372951	-0.111811	0.0111316	0.0571372	-0.0234584	-0.00588653	0.017894	-0.0895484	-0.00572493	0.204324	-0.117562	-0.196228	-0.0156398	0.147897	-0.129302	-0.0217338	0.0424406	-0.0491403	-0.0775532	-0.160951	-0.0174153
款式	-0.0145259	-0.0531769	-0.0616645	0.0283245	0.0544934	0.0134104	0.0727281	-0.0475402	-0.166501	0.0877131	0.104319	-0.0747937	0.0630835	-0.0517369	-0.0755484	0.0526483	-0.0782327	-0.138352	0.0629497	-0.0550218	0.0929089	0.00679417	-0.0604831	0.0708691	-0.054204	0.0864602	0.0562005	0.0776284	-0.0630822	-0.0831912	0.0804661	0.458422	0.0651411	-0.0478642	0.0664095	0.0688655	0.217519	0.0768125	0.0720691	0.0742909	-0.0700852	-0.0484233	-0.0571624	0.0853566	0.0693427	-0.10264	-0.0893277	0.093404	-0.0460277	0.0615733
